w[0]
-0.525706,-0.239978,-0.493458,0.947807,-0.601812,-0.24526,-0.916863,0.13002,-0.930264,-0.925572,0.406172,-0.75673,-0.269638,-0.217687,0.530333,-0.303953,0.13406,-0.745435,-0.391717,0.2124,0.0236127,0.405366,0.175329,-0.921747,0.349336,0.264837,-0.607414,0.721663,0.8437,0.186259,-0.760993,-0.996951,0.32625,-0.972124,0.831019,0.140441,-0.889811,-0.300829,-0.410126,-0.199701,-0.00663107,-0.368577,-0.14338,0.378194,-0.0228362,0.225703,0.766195,0.788425,-0.663849,0.798281,0.958169,0.642612,0.204298,-0.348169,-0.0572743,-0.162625,-0.0141968,-0.42837,0.997083,0.20385,-0.252082,-0.115444,-0.545754,0.404486,0.961801,-0.895107,0.115728,-0.685857,0.364664,-0.365691,-0.537004,-0.0776356,0.952762,-0.595034,-0.161574,-0.187673,0.762254,-0.26116,0.633129,-0.506433,0.324841,0.541825,0.975276,-0.607635,0.157397,-0.167199,-0.80248,-0.599538,0.426812,0.192031,-0.855602,0.223847,0.15975,-0.929449,0.21738,0.196348,0.827756,-0.0663486,-0.102828,-0.830404,-0.129209,0.0252992,0.0991764,0.849633,-0.901086,-0.206705,-0.228852,-0.0124306,0.601158,0.107934,-0.0939274,0.47429,0.190418,0.89696,0.255918,0.421212,-0.659567,0.0812567,0.32941,-0.773275,0.193987,0.587079,0.427503,-0.110198,-0.744759,-0.486565,-0.822232,0.998012,-0.102592,-0.188261,-0.491576,-0.656651,0.620266,-0.750756,-0.440754,0.0709344,-0.984022,-0.257963,-0.0844455,-0.187228,-0.824815,0.0678291,0.0218199,-0.525132,0.430559,-0.53442,0.695855,-0.137377,-0.164544,0.865539,-0.911692,0.845746,-0.580774,0.544159,0.454692,0.0388359,0.884035,-0.0497201,-0.66836,-0.170198,-0.188776,0.305502,-0.394468,-0.624349,0.0635579,0.976138,-0.855054,-0.752174,-0.106871,-0.217298,-0.526991,-0.92172,0.192226,-0.325408,0.79253,-0.762174,-0.715133,0.416056,0.111007,0.443004,-0.576364,-0.786259,-0.17189,0.979077,-0.0822879,-0.730752,0.378959,-0.641494,0.518633,-0.0732906,0.755043,0.094837,-0.159579,0.927022,-0.116618,-0.522044,-0.962429,0.997508,-0.557471,0.171837,-0.965236,-0.184173,0.61618,0.226646,-0.12199,0.960256,-0.603835,0.559043,0.146271,0.225075,-0.784391,-0.891308,-0.121716,0.0138007,0.78638,-0.58237,0.460066,0.706431,-0.252143,-0.492413,0.68738,-0.265927,-0.569267,0.26724,-0.547614,0.353234,0.0621938,0.494148,0.289732,0.244367,0.610769,0.652407,-0.215521,-0.287453,-0.0377673,0.884131,0.821518,-0.247355,0.941935,0.419937,0.95067,0.949863,0.453311,-0.923986,0.774385,0.238559,0.494806,-0.329256,-0.14287,-0.553014,-0.213923,-0.520063,-0.438754,-0.18913,-0.900672,-0.266873,0.940833,0.464932,0.647207,-0.189865,-0.318588,-0.839165,0.517071,0.107648,0.168816,-0.796392,0.473187,0.906393,-0.805863,0.691285,0.29169,-0.030291,0.0226446,-0.948249,0.715744,0.382237,0.56891,0.601278,0.599388,0.271482,0.491292,0.739033,0.811063,-0.589714,-0.244319,-0.821559,-0.562321,-0.269831,0.51843,0.843766,0.840524,0.556724,-0.385878,0.984769,-0.500358,-0.239433,0.909784,0.823791,-0.0072309,-0.940078,-0.0133219,-0.735653,-0.997774,0.960275,-0.697828,-0.123066,-0.255547,0.11019,-0.0406725,0.505958,-0.822296,0.206029,0.345749,0.990399,-0.356877,0.00994989,-0.121889,0.984873,0.64058,-0.557668,0.839601,-0.813518,-0.727755,-0.563108,-0.0976616,-0.264715,0.172915,0.790115,-0.591701,-0.511222,-0.189464,-0.290001,-0.699277,-0.78584,-0.4917,-0.237618,-0.845195,0.843139,-0.880049,-0.933336,0.430823,0.21431,0.26004,0.877703,-0.701049,0.155504,-0.856569,0.551795,0.184545,-0.238456,0.112926,-0.372055,0.26802,-0.874942,-0.793294,-0.227853,-0.940352,0.722767,0.580303,-0.320025,-0.0224111,-0.304926,-0.214935,-0.173179,0.585293,0.14355,0.282497,0.361524,0.652908,0.173075,0.368683,-0.50985,-0.92451,-0.820714,-0.234391,-0.186878,-0.609454,-0.355904,0.193346,-0.139863,-0.635916,-0.308739,0.368405,0.106181,0.196025,0.363179,-0.321381,-0.351539,-0.754254,0.190796,0.0454012,-0.647558,0.766742,-0.197839,-0.217026,0.813106,0.349636,-0.596993,0.666153,0.334547,-0.349301,0.539212,0.246765,0.0725219,0.443765,-0.253722,0.222582,0.0252927,-0.293874,-0.652641,-0.774662,-0.613784,-0.127265,-0.293275,-0.357055,-0.0697681,-0.514037,-0.283869,0.844296,0.783893,-0.0294249,-0.927382,-0.969633,0.848531,-0.812792,0.360451,0.892296,0.788162,0.0587053,-0.208359,-0.876579,-0.918322,0.663023,-0.756649,0.652544,-0.37895,-0.318402,0.124153,-0.639979,-0.00583895,-0.143948,0.641558,-0.908394,0.00400733,-0.217067,-0.170556,0.190478,0.524958,0.248961,0.853739,-0.800993,0.603984,-0.200042,0.277321,0.980228,-0.374132,-0.701508,-0.0234621,-0.310484,0.077452,-0.72094,0.913048,-0.0296374,0.487903,-0.783441,0.137468,0.371921,0.0348755,-0.966873,-0.96162,-0.0273484,0.0458789,-0.610105,-0.146395,0.957759,0.0465568,0.168872,0.131962,0.0229122,-0.0151364,0.551639,0.039779,-0.292865,-0.51213,0.702987,0.251829,0.821144,0.0800886,0.81853,-0.211636,-0.995021,-0.259104,-0.958826,0.88921,-0.0775643,0.796871,-0.961061,0.0605649,0.848318,0.108398,0.984462,-0.298581,-0.698128,-0.748926,-0.648978,-0.417832,0.984397,-0.157931,-0.180347,0.563993,-0.212282,-0.233535,0.249222,0.183822,-0.658944,0.182739,0.756164,0.71192,-0.786606,-0.51925,-0.659366,-0.495843,0.0929578,-0.41856,0.669601,0.427016,0.909872,0.504308,0.233221,-0.882604,-0.415483,-0.650022,-0.656013,-0.434293,0.865026,0.919973,-0.300311,-0.088359,0.845462,-0.0802664,-0.753141,-0.345982,-0.469435,-0.142018,0.0874011,-0.197369,0.339042,0.088004,0.612904,0.828166,-0.962931,-0.757924,0.750103,-0.0274249,-0.352557,0.342286,-0.631527,-0.077841,-0.950984,0.195466,-0.34104,-0.886005,0.618161,-0.073193,-0.921179,0.705272,0.864687,0.80326,-0.34843,-0.809137,0.292066,-1.06695,0.080751,0.659442,0.912199,-0.524901,0.0508131,-0.0833333,-0.0561089,-0.35728,0.797606,0.270269,-0.130598,-0.895114,-0.159686,-0.0136155,0.282838,-0.612819,0.339397,0.927004,-0.702131,0.379529,-0.780312,0.542115,0.962564,-0.760256,-0.678875,0.0676434,-0.163166,-0.00745662,0.968149,0.231115,0.627313,-0.812328,0.565302,0.366877,-0.521786,0.66507,0.210318,-0.988622,-0.463563,0.664556,0.308251,-0.859312,0.801194,0.335137,0.729857,0.635991,-0.878756,0.4885,-0.398489,-0.176853,0.942042,0.805918,-0.824097,0.156147,0.408837,0.131243,-0.0121825,-0.118361,0.220669,-0.935749,0.456657,0.394026,0.981211,0.257772,-0.0326852,0.344439,0.659469,0.0674909,0.664524,0.486029,-0.329302,-0.279605,-0.958215,0.697561,0.313736,0.0672561,-0.229441,0.95098,-0.0627871,-0.957282,-0.181294,0.799724,0.852585,-0.436235,-0.834391,-0.976266,-0.924508,-0.0373999,0.583782,-0.192912,0.20661,-0.128249,-0.318848,-0.198998,-0.0218552,-0.49674,-0.262761,-0.118872,-0.00756974,0.341223,-0.69173,-0.0211559,0.463528,-0.945009,-0.0286854,-0.532369,-0.142061,0.0324882,-0.385016,0.170658,0.271747,-0.410751,0.317924,0.725263,-0.40124,-0.100912,-0.724951,-0.0917103,-0.342311,-0.0602352,0.723318,-0.827376,0.133159,-0.253399,-0.319227,0.390049,-0.653471,0.411693,0.891106,-0.991718,0.641625,-0.705201,-0.589238,0.280455,0.797849,-0.154575,-0.591115,-0.69608,0.481487,0.864046,0.817251,0.443684,0.134531,0.601685,0.448905,0.075324,-0.178304,0.991703,0.222428,0.244696,-0.0936738,0.228869,-0.195658,-0.544752,0.920697,-0.504103,-0.625691,-0.735276,-0.910983,0.257867,-0.958204,-0.914213,-0.543523,-0.345684,-0.0449627,-0.820685,-0.896205,-0.674391,-0.256053,-0.419654,-0.80844,0.173781,-0.709721,-0.979501,0.290085,0.967348,0.446727,-0.489719,-0.475812,0.216279,-0.385158,0.323832,0.387614,0.148115,0.101148,-0.130866,-0.0210301,-0.796696,0.849387,-0.724754,0.821159,0.626957,-0.323746,-0.284258,-0.987464,-0.600031,-0.265262,0.0184139,-0.587387,0.27973,-0.241176,0.470034,-0.118182,-0.751883,-0.655592,-0.707703,0.401992,-0.541424,0.792885,-0.286055,0.635482,0.437305,-0.455991,-0.0444785,-0.74358,-0.903715,-0.919672,0.15984,0.192882,0.451664,0.99672,0.84919,-0.760683,0.789953,-0.207797,-0.341469,0.566185,0.675263,0.814034,0.761794,-0.083241,0.152348,-0.594621,0.825718,0.189828,-0.213435,-0.889833,-0.363651,-0.117971,-0.720689,-0.555377,-0.123149,-0.137706,-0.46925,0.104496,-0.487937,0.779171,-0.684825,0.962513,0.165199,0.119391,-0.830347,0.462377,0.425726,-0.538303,0.000467366,0.562793,0.675161,-0.165212,0.839767,-0.955468,-0.925115,0.153118,-0.296255,-0.901329,0.282127,0.51119,-0.35526,0.864364,-0.876508,-0.14828,-0.251722,-0.2916,0.201982,-0.109327,-0.837572,0.548851,0.141035,-0.0931751,-0.217892,-0.774993,0.362908,-0.456683,0.282119,-0.949396,0.77811,-0.30636,0.0690218,-0.481067,-0.956669,-0.966908,-0.554236,0.454916,-0.644605,0.67312,0.555679,-0.428373,-0.631474,0.299195,-0.258626,0.609746,0.399178,0.204076,-0.121985,-0.245332,-0.0280337,-0.0235918,0.854304,-0.230244,0.4823,-0.354739,0.532249,-0.95067,-0.225205,0.806398,0.26387,-0.725733,0.368172,0.544865,-0.402446,-0.0606811,-0.44453,-0.294251,-0.419435,-0.182879,-0.977867,-0.0723593,0.956635,0.205605,0.73873,0.0290269,0.867162,-0.854221,0.829725,-0.161351,0.292032,0.61265,-0.341788,0.768399,-0.216968,-0.802064,-0.974555,-0.604054,0.878211,0.762458,0.438872,0.316574,0.763132,0.087852,0.849168,-0.306154,0.00361692,-0.631261,0.573627,-0.900044,-0.188776,-0.267166,0.67996,-0.484054,-0.676884,-0.372042,-0.61165,-0.596622,0.114117,-0.298369,-0.0170537,-0.352739,0.298753,0.407118,0.561132,-0.269777,-0.318846,-0.220781,0.628611,-0.577568,-0.662043,0.528537,0.261243,-0.769664,0.565142,0.886468,-0.362577,0.932293,0.811828,0.0658836,0.567067,0.141956,0.376408,0.436753,-0.780864,-0.544885,0.982285,-0.793502,-0.497052,0.0361266,-0.241488,-0.565103,0.0655371,0.297197,0.167812,0.458927,0.277093,0.452996,0.600178,-0.360131,-0.345744,0.0538388,-0.678441,-0.201623,-0.42658,0.312704,-0.64606,0.870354,-0.47136,0.210742,-0.769135,0.0888816,0.0752841,-0.462419,-0.0808101,-0.220729,-0.871143,0.492546,0.784384,-0.148725,-0.18098,-0.843141,0.0684092,-0.193585,-0.518918,0.789975,0.0562277,0.237698,-0.613867,-0.858872,-0.213574,0.206272,-1.01401,0.100261,0.580671,0.414169,-0.565691,-0.439535,-0.170789,-0.151224,0.595503,-0.159012,0.794444,0.214803,-0.878587,0.0703637,-0.200566,-0.252224,0.799726,-0.0145239,-0.150165,0.126594,-0.0432038,0.508617,0.616053,-0.234357,-0.493607,-0.29813,-0.566086,-1.1688,-0.299063,-0.590722,-1.06087,0.439174,0.165488,0.09375,-0.724217,-0.159239,-0.187621,-0.350495,0.815293,-0.854851,-0.0966113,-0.148587,-1.00116,0.204169,0.431214,-0.638045,0.252965,-0.0835835,-0.381303,-0.138448,0.189469,0.266159,-0.162873,0.516558,0.255717,0.23883,-0.327474,-0.41037,0.815001,0.77711,-0.99374,0.218386,0.652268,-0.365449,0.561347,0.804791,-0.495049,0.393132,-0.0897643,-0.406179,-0.405682,0.0128144,-0.722642,-0.240142,-0.38389,-0.0770363,-0.117125,0.126295,-0.58137,-0.32047,-0.735022,0.0531553,0.196827,-0.75665,-0.604699,0.64094,-0.180415,-0.910199,0.270578,-0.278288,-0.57934,0.763413,-0.840124,0.573039,0.499778,-0.279966,0.218741,0.55109,-0.766885,0.211162,-0.511263,-0.509993,-0.499786,-0.756666,0.540922,0.414129,0.379317,-0.198259,0.116913,-0.974003,-0.624664,-0.181177,-0.871343,-0.451001,-0.973593,0.864338,0.697875,0.480401,0.0521353,0.595413,-0.0337224,-0.428892,0.22767,0.926854,-0.385734,0.608317,0.806686,0.805733,0.85733,0.278693,-0.824846,0.279196,0.694608,0.0790542,0.148066,0.816779,0.307264,0.744965,0.616819,-0.994843,-0.653797,-0.0686643,-0.760558,0.24029,0.456515,0.223981,0.618742,-0.688869,0.858255,-0.542541,-0.26449,-0.757345,0.169631,-0.46988,-0.072946,0.611832,-0.182117,-0.860936,0.564255,0.314023,-0.548199,-0.728466,-0.71807,-0.540237,-0.115726,-0.029088,-0.409856,-0.463122,-0.185614,-0.314782,-0.363747,-0.882722,-0.0645152,0.314612,-0.761081,-0.0401201,0.491475,-0.76541,0.16043,0.944052,0.580039,0.348551,0.0655319,-0.63889,-0.0617416,-0.567087,0.238462,-0.320317,-0.870139,-0.961675,0.159303,-0.486033,-0.963163,0.117481,-0.520164,0.791176,-0.732744,-0.286221,-0.943102,0.305913,-0.889435,0.437779,-0.697181,-0.348347,-0.102315,0.852093,-0.285339,-0.812991,-0.838573,-0.324096,-0.248929,0.118844,-0.335947,-0.728675,-0.950163,-0.526273,0.865372,0.822359,0.875984,-0.0549863,-0.0155182,-0.0441041,-0.448132,0.781766,0.351122,-0.350555,0.105637,-0.780663,-0.162235,0.535831,-0.62747,0.0847729,-0.757508,0.306804,0.379868,-0.0231252,-0.530601,0.184564,0.161489,0.495559,-0.480389,0.463239,-0.552675,-0.78082,-0.367025,-0.155656,-0.636647,-0.952066,-0.30531,0.959851,0.319582,0.928519,-0.446422,-0.405315,-0.566648,0.827919,0.109717,0.964332,-0.356828,-0.912967,0.180125,0.503777,-0.634211,-0.746741,-0.685625,-0.960307,-0.100872,-0.923832,-0.119947,0.352866,-0.367075,-0.415632,-0.279237,-0.0664994,0.41599,-0.681523,-0.186217,0.238065,0.264282,-0.991098,-0.76589,-0.00545993,0.206439,0.0166967,-0.580088,0.358552,-0.142684,-0.028565,-0.378806,-0.835237,0.769372,-0.887215,-0.210156,0.682248,-0.0269116,0.358475,0.53822,0.995839,0.0879578,-0.129693,-0.445335,-0.369521,-0.377958,-0.207948,0.207887,-0.601145,0.623671,0.911541,-0.270814,-0.978308,0.683901,-0.111907,0.079848,-0.193239,0.982335,-0.388422,-0.213223,0.736139,0.122412,0.00411101,-0.307013,0.606607,-0.592427,0.943613,0.0834344,0.502583,-0.349632,-0.151837,-0.770974,0.236469,0.665624,-0.389696,-0.124203,-0.951371,-0.344297,-0.902323,0.737385,0.289096,0.319733,-0.2698,-0.661296,-0.51921,0.236361,-0.149315,-0.406908,0.402658,-0.269135,-0.0904871,-0.838009,-0.68579,0.233417,-0.16799,0.0218683,-0.0982369,0.581985,0.560561,0.0657641,-0.448304,0.120458,-0.882477,-0.181056,0.113588,0.0833509,-0.551817,0.564603,-0.816038,-0.74891,-0.244897,0.482892,-0.582299,0.782588,0.120295,-0.977366,-0.0822164,0.546104,0.0786563,-0.406492,-0.994782,0.417453,-0.591355,-0.549682,-0.622905,-0.876259,0.0647025,-0.109194,0.48979,0.431025,-0.233324,-0.55381,0.301479,0.31847,-0.838824,0.0862137,0.893495,0.770133,-0.817031,-1.1776,0.0905879,0.0137019,0.426548,0.357322,0.092252,0.165309,-0.352918,-0.0383653,-0.449695,-0.266932,-0.656102,0.443448,1.09189,-0.80657,-0.824301,-0.00393228,-0.976185,-0.608714,0.740509,0.776999,0.0972551,-0.163799,0.727534,0.474201,-0.47618,-0.00786491,0.962672,-0.317409,0.273314,-0.607111,-0.671874,-0.822311,0.357331,-0.460264,-0.718927,-0.906196,-0.18559,0.56773,0.0980752,0.665477,0.653788,0.109739,0.646293,0.26614,-0.399889,0.737581,0.0812442,-0.40219,-0.53754,0.0288229,-0.288511,0.907497,0.360169,-0.819556,0.270829,-0.5896,0.621205,-0.20624,-0.521317,-0.149387,0.631494,-0.557,0.971271,-0.669774,1.02014,0.112572,-0.197042,-0.188461,-0.726251,-0.213919,0.96319,0.295475,0.749518,0.385237,-0.726776,0.853144,0.093442,0.626907,1.04994,-0.444016,-0.0808474,-0.370065,-0.23571,0.297208,-0.026373,-0.196376,0.15676,0.444825,-0.330725,-0.475792,-0.426839,0.124819,0.72697,-0.226644,0.278942,-0.528991,0.0810007,-0.392389,0.312067,-0.174919,0.26188,-0.235088,0.481062,-0.178427,0.40174,0.478918,-0.317862,0.155056,0.316592,0.277457,-0.830442,0.462882,0.836522,0.577067,0.999146,-0.0404179,0.520506,-0.208621,-0.0316774,-0.366356,-0.769309,0.261554,0.67425,-0.227988,0.239694,-0.0962006,0.458105,-0.0196436,-0.94584,-0.874211,0.959072,-0.323416,-0.108066,-0.143859,-0.577017,-0.111187,-0.604149,0.946183,0.606382,0.323193,-0.584242,1.32707,0.568022,0.691985,0.376134,0.748022,0.858446,-0.819718,0.856876,0.629238,-0.258677,0.261091,0.565229,0.331021,-0.114299,-0.423485,0.272906,-0.494614,0.315988,0.622694,-0.163986,-0.412071,-0.315207,0.244261,-0.554534,-0.85926,0.630943,-0.738218,0.854948,0.849543,0.886737,1.09744,-0.602876,0.952852,0.107159,-0.117309,-0.611642,-0.0720654,0.522211,0.802989,-0.358612,-0.501728,-0.562485,-0.206239,-0.643958,0.465901,1.17408,-0.226272,-0.35334,-0.219819,-0.316994,-0.566698,-0.170392,0.194194,-0.0365636,-0.935351,0.909667,0.735716,0.814838,-0.243066,-0.293983,0.395443,0.868924,0.617024,-0.0974914,0.666562,0.514154,-0.52324,-0.0299611,0.121781,0.770394,0.551602,0.116379,-0.280827,0.731039,-0.593377,0.776257,-0.960665,-0.203427,0.994973,0.433538,-0.00764392,0.672321,0.258232,0.360752,-0.616494,-0.164657,-0.298764,0.829248,0.0355912,-0.716428,0.51682,0.271042,0.257939,-0.284431,-0.449128,0.808652,-0.391416,0.701341,0.0575527,-0.0415797,-0.910133,-0.924756,-0.377349,-0.593798,-0.868533,0.284784,-0.624184,0.888215,-0.442395,-0.65382,0.32743,0.310027,-0.325035,-0.718935,-0.721601,-0.586061,-0.0484615,-0.458806,-0.533736,-0.112885,-0.85668,-0.34952,-0.433358,0.0196045,0.915233,0.945737,-0.0646364,-0.663718,0.741706,-0.264722,0.405746,0.852074,-0.592326,-0.816523,-0.390183,-0.771307,-0.382882,0.168438,0.727715,-0.785297,-0.0575116,-0.92819,0.633819,-0.118848,0.878556,0.843975,-0.45448,0.947291,0.991958,0.041165,-0.722718,0.283521,-0.339964,0.738934,-0.99563,0.891748,0.0460229,0.177719,-0.325792,-0.519149,-0.492568,0.453232,-0.773373,-0.809348,-0.888126,-0.952018,0.369709,0.786804,0.380555,-0.916336,0.830114,-0.188548,0.566701,-0.986334,-0.492871,0.352677,0.693803,0.210861,0.219192,0.170577,0.282763,0.616929,0.497528,-0.7927,0.948072,-0.235573,0.014376,-0.20405,-0.0689628,-0.753529,0.847492,0.342946,-0.53929,0.313701,0.476299,0.545111,-0.479219,-0.00622121,-0.799225,0.789567,-0.0850176,-0.687563,0.287228,0.769648,0.819376,0.399164,-0.477678,-0.418217,0.21821,-0.628444,-0.676373,-0.136827,0.277134,0.313936,0.840242,-0.592476,-0.23246,0.585245,-0.623385,-0.431641,0.251271,-0.821084,0.863955,0.124413,-0.455573,0.934411,0.286473,-0.0246423,-0.138239,-0.703527,0.761145,-0.00160057,-0.708482,0.659979,-0.916846,-0.517559,0.378779,0.109144,0.0403508,0.111276,0.357676,-0.739137,-0.498207,0.787233,0.444547,-0.185892,0.418551,-0.509728,0.0321511,-0.45444,0.680261,0.62343,0.467784,0.647348,0.142745,-0.113282,0.1363,-0.917096,0.017032,0.317606,-0.501124,0.258923,-0.997549,0.00223272,-0.104405,-0.340841,-0.396563,-0.301303,0.0215825,-0.595258,-0.086053,0.376023,0.306645,-0.235789,-0.305249,-0.343868,0.192652,-0.60203,0.252848,0.792118,0.69532,1.19331,0.964153,-1.19946,-0.144618,0.540725,-0.341226,-1.14538,0.275512,0.285524,0.954008,-0.209401,0.856554,-0.13054,0.295393,-0.133508,0.814457,1.04184,0.354498,0.275506,-0.655363,0.541343,-0.969489,-0.222875,0.00203237,0.389249,-0.0736341,0.553951,0.470736,-0.977135,-0.791767,0.499945,-0.722532,-0.651092,-0.338927,-0.561305,0.113125,-0.462965,0.583143,-0.250564,-0.441595,0.391923,0.108654,0.243572,-0.890371,0.152133,-0.123906,0.992219,0.0899895,-0.0394661,0.171307,0.565278,-0.84273,0.0488965,-0.160349,-0.385752,0.424784,-0.213919,0.0330722,-0.310683,-0.827309,0.725549,-0.147879,-0.462677,-0.653403,0.166278,0.164497,0.258153,0.0227797,0.0530751,-0.0572128,-0.152158,-0.0354736,0.32285,0.0733936,0.559576,0.542218,0.544131,0.268318,0.311086,-0.422215,0.407502,-0.189126,-0.513765,-0.23626,0.109224,-0.128057,0.469626,-0.330524,-0.675385,-0.352194,0.563942,1.09809,-0.00634543,0.00638824,-0.0478984,-0.32759,-0.0751866,0.26492,0.094018,0.142965,-0.282417,-0.499624,0.338774,-0.647848,-0.219632,-0.344117,0.953407,0.176646,-0.968865,0.159447,0.0228214,-0.0728721,-0.26723,0.0593654,0.617725,0.00749036,-0.650087,0.249887,0.246129,0.161008,0.587132,0.751499,-0.252217,-0.883863,-0.17902,-0.234058,0.62775,-0.209108,0.302847,0.408316,0.313104,1.04201,0.521784,0.182815,-0.662598,-0.371141,0.130108,-0.432587,-0.539282,-0.0180638,-0.53682,0.216501,-0.0492743,-0.351223,-0.335828,-0.797357,0.0145709,-0.434738,-0.140976,0.512292,-0.272807,0.156167,0.0416386,-0.528314,0.363342,0.760888,-0.276712,0.374592,0.18557,0.0535951,-0.336305,0.743758,-0.344959,-0.607192,0.259033,-0.129163,0.853176,0.786091,-0.631162,-0.325581,-0.658673,0.699546,-0.255225,0.0403392,-0.062946,-0.8627,-0.168431,-0.634761,0.521454,0.495766,-1.12122,-0.778707,1.026,-0.140537,0.49041,-0.608792,0.373673,-0.200747,-0.434489,-0.152201,-1.36573,-0.0546387,0.167796,-0.704776,-0.336891,-0.743508,-0.134538,0.300885,-0.504155,-0.497403,0.651382,-0.340123,-0.474209,0.0288021,0.288342,-0.122076,-0.633739,0.520326,-0.872664,-0.845162,0.339401,-0.593698,0.971514,-0.580501,1.05154,0.204397,0.995162,-0.218748,-0.753282,0.537637,-0.346092,-0.771982,-0.131898,-0.109932,0.679887,0.202075,0.451242,-0.326354,-0.50621,0.0921058,-0.965037,0.51996,-0.386171,-0.287808,-0.0926208,-0.374506,-0.81255,-0.190947,0.596066,-0.715475,0.630107,0.600405,-0.210819,-0.716196,-0.571412,0.308284,-0.738548,0.107991,-0.639214,0.871568,-0.286145,0.461962,0.153888,0.730074,0.565213,-0.822439,-0.295563,-0.536898,-0.979513,-0.849803,0.481514,0.957278,-0.665824,-0.128226,0.0182681,0.431644,0.571906,0.944886,0.174876,-0.29941,0.477486,0.532925,0.165642,-0.646388,0.828132,-0.329241,-0.0165192,-0.948021,-0.0338838,0.306329,-0.249331,0.640064,0.7346,-0.0309741,-0.275986,0.357161,0.487621,0.374806,0.43459,0.851762,0.365322,0.242671,0.980833,-0.387917,0.111846,-0.0920152,-0.323616,0.653855,-0.168905,0.473887,0.35116,-0.74693,-0.243161,0.593855,-0.279061,0.649994,0.345832,-0.359699,0.144834,0.93486,0.355325,-0.84828,-0.24812,0.696733,-0.60833,0.0922934,-0.385051,0.462685,-0.0470335,0.814023,-0.594587,-0.558515,0.550573,-0.848476,-0.72906,-0.109914,-0.25526,0.893764,-0.325794,-0.064479,-0.806357,-0.733091,-0.542624,0.316939,-0.225665,-0.341573,-0.461342,-0.78831,0.360006,-0.00866191,-0.160797,-0.885502,-0.741466,-0.881294,-0.291366,0.627683,-0.172371,0.154587,-0.816736,0.564053,0.208533,0.322097,0.332732,1.02519,0.766714,0.0633817,0.945741,0.0554592,0.178925,0.418065,-0.742031,-0.893306,-0.574474,0.307118,0.168215,0.546351,-0.73079,0.480238,-0.558656,-0.325826,0.340047,0.318065,0.658764,0.367556,0.441547,-0.901123,0.306832,-0.0881674,0.357078,-0.434351,1.08122,-0.805453,0.173896,-0.446357,-0.446074,-0.412389,-0.0219058,-1.03534,0.744316,-0.945599,-0.734291,0.989505,-0.141425,0.56713,0.232543,0.973278,0.189778,0.2961,-0.31552,1.19157,-0.655464,0.476247,-1.06601,-0.565158,-0.898272,0.67295,0.562457,-0.462671,0.0640198,0.628514,0.307006,-0.232396,0.666321,0.0410611,0.818777,-0.178418,0.225231,-0.15565,0.825798,0.549616,-0.680146,-0.425838,-0.327682,0.566013,-0.17364,-0.0553929,-0.00969528,-0.404528,0.411895,1.15066,0.27624,-0.6805,-0.812578,-0.277552,-0.0195458,-0.258503,0.276087,-0.145669,1.16777,-0.615497,0.946394,-0.107436,-0.269135,-0.105729,-0.636994,0.508431,0.462888,-0.582287,-1.1301,0.000180318,0.385291,0.493656,-0.730825,0.473391,0.350791,-0.00464715,-0.477594,0.0800994,0.00571093,0.944821,0.0966156,0.777362,0.198224,0.822515,-0.17122,0.433809,0.682763,0.637074,0.273041,-0.657472,0.13378,-0.937933,0.130611,0.097539,0.116143,0.30315,0.317731,-0.455673,-0.602371,0.53452,0.874904,-0.272074,-0.422756,0.556655,-0.232149,0.111908,-0.839209,0.201379,-0.163771,0.117093,-0.324162,-0.822812,0.16313,-1.18742,0.470782,0.0249359,-0.123495,0.167066,0.501173,0.201031,0.387188,-0.150718,0.447222,0.283607,-0.722975,1.14501,-0.841151,0.351839,-0.018524,0.157449,0.637964,0.621436,0.548565,0.344701,-0.0619635,0.409421,-0.83,-0.735444,0.251669,-0.345981,0.358015,0.264711,0.0419047,0.811332,0.326254,-0.100249,0.231501,0.0750696,0.700691,0.53749,0.437085,-0.537634,0.385855,-0.584401,0.425336,-0.011243,-0.341596,-0.113301,-1.06783,-0.630576,-0.153209,0.583803,0.387369,0.734894,0.153407,0.344309,-1.00883,-0.644169,-0.196605,-0.559857,-0.18202,-0.343698,-0.136139,-0.0271845,-0.672971,-0.0136185,-0.366773,-0.23239,-0.198851,0.226555,0.17011,-0.69656,-0.374133,0.0831904,-0.475022,0.385024,-0.395885,-0.549221,-0.802498,0.138732,0.0373024,0.911595,0.291868,0.0270108,-0.195249,-0.326197,-0.142016,-0.169438,0.420824,-0.199837,-0.0910464,-0.776088,0.379216,0.809841,-0.202607,-0.34877,-0.173074,-0.183415,0.0851844,-0.543515,0.0315169,0.213809,-0.958777,-0.52686,0.0901824,0.168732,-0.563929,0.344902,0.497719,-0.377633,-0.167375,0.201333,0.758436,0.682743,0.124827,-0.392162,-0.488642,0.209973,0.742077,-0.27875,0.105769,-0.573261,-0.92402,0.224967,-0.497215,0.0991411,1.17292,0.38242,-0.102299,-0.146713,-0.964815,-0.0854788,-1.02567,0.539621,-0.370367,0.125211,-0.0254226,-0.931932,-0.596497,-0.788508,-0.0962049,0.973444,-0.274786,0.19172,-0.349369,-0.00328622,-0.493059,-0.363625,-0.24351,-0.93911,0.504195,-0.190669,-0.561455,-0.0150905,0.151369,-0.137937,-0.113624,0.224721,0.603611,0.255944,0.529703,0.18586,-0.178742,-0.61636,0.0703533,0.765848,0.242009,0.123987,-0.120772,-0.752357,-0.399358,0.150836,-0.286486,0.100956,-0.233673,-0.863438,-0.708717,-0.440724,-0.9577,-0.876584,0.0131152,-0.143541,-0.762197,-0.746387,-0.233735,-0.82109,-0.709289,-0.585746,0.294886,0.27886,0.553791,-0.997371,-0.91452,0.694056,-0.153449,0.610384,-0.246792,-0.00389904,-0.60062,-0.290051,-0.953595,-0.728658,0.0880027,-0.183517,0.228735,0.562231,-0.767338,0.962559,-0.664201,0.807636,0.399408,0.722213,-0.682866,0.79805,-0.389618,-0.793079,-0.190088,0.387773,0.148732,0.608849,0.219889,-0.292181,-0.0506619,0.840934,0.100252,0.0151608,-0.979611,-0.148102,-0.809516,0.699502,0.494195,0.080906,0.0395792,-0.144181,0.149067,-0.746435,-0.896152,-0.914635,-0.10262,0.557588,-0.0482452,0.229049,-0.686852,0.329514,0.0996438,-0.238734,0.397659,-0.44058,-0.765874,-0.816582,0.979326,-0.162524,0.700836,-0.475609,0.917496,0.984423,0.932169,0.834887,-0.658949,-1.03756,-0.361645,0.141206,-0.32665,0.477756,0.306991,-0.140482,-0.788324,-0.110166,-0.687418,-0.203758,-0.819674,-0.259109,-0.150262,-0.584562,0.198514,0.302138,0.120153,-0.14079,0.958588,0.261327,0.304591,-1.02699,1.21676,-0.0323205,-0.161104,-0.71442,-0.759754,0.884864,-0.965497,0.297619,0.865526,-0.0830453,-1.06186,-0.175914,0.66429,0.922261,0.315416,-0.0119497,0.822971,-0.241393,-0.119368,0.670761,0.0257251,1.02539,-0.496292,0.884647,0.0195735,-0.668759,0.584811,0.627257,1.123,-0.576298,-0.630998,-0.345597,-0.540016,0.499492,-0.81337,0.76213,-0.299856,0.0502025,-0.927003,-0.0902528,0.565968,0.472922,-0.00632281,0.965009,0.0744501,-0.192491,-0.436885,-0.436557,0.49408,0.868914,-0.452435,0.777206,0.702192,0.277762,0.396092,-0.412406,-0.804437,-0.778148,-0.193027,-0.814874,0.609528,-0.298798,0.783465,0.584133,-1.03294,1.20319,0.75831,-0.384309,-0.503589,-0.651917,-0.331352,-0.750115,0.0375486,-0.215404,-0.178893,-0.631438,0.256674,0.716449,-0.130244,-0.89502,-0.157127,0.14511,-0.0395545,0.591735,0.214169,0.80066,0.132045,-0.702159,0.359396,-0.602025,0.383449,0.186658,0.632636,-0.331994,0.648008,-0.338305,0.294275,-0.211847,-0.791885,-0.0550097,-0.508151,0.597759,-1.08805,0.0130855,-0.60247,-0.213509,0.26829,0.574816,0.596961,0.57164,0.798828,0.473624,-0.556113,-0.117153,-0.155567,-0.495017,0.362197,-0.842246,0.0362003,-0.390635,-0.258187,-0.0156298,-0.320776,0.865548,-0.171393,-0.038915,-0.219275,0.603537,0.192834,0.121636,0.0535022,-0.449071,-0.454018,0.345397,0.283076,0.574695,-0.0122932,0.439764,-0.294357,-0.652403,-0.136334,-1.07127,-0.333951,-0.252084,0.195903,0.658898,-0.0694971,-1.1671,-0.148543,-0.335565,-0.190703,-0.0676815,0.162581,0.324941,0.0335228,-0.203177,-1.02455,-0.198002,0.97847,-0.65333,-0.392728,0.718197,-0.22283,0.681312,-0.529999,-0.488546,-0.00227301,-0.572738,-0.429918,-0.296287,0.213701,0.177501,-0.235442,0.988394,-0.75435,0.121863,-0.467852,-0.441179,0.0736239,-0.379411,0.620779,0.451823,-0.426349,0.354495,-0.454981,0.861498,-0.345107,-0.069103,0.689249,0.322238,0.40476,1.02591,-1.05777,0.439563,-0.911696,-0.705508,0.167806,0.225072,-0.0605948,0.342182,-0.141399,-0.167042,0.248306,-0.523061,0.137494,-0.36329,-0.124191,-0.171162,0.281923,0.158617,0.32502,0.550053,0.722474,0.444346,0.434162,0.742728,0.969474,0.212951,0.00391124,-0.116246,0.517463,0.0831855,-0.833997,-0.110059,0.554888,-0.0460586,-0.359743,0.17758,-0.717461,-0.343243,-0.712954,-0.427616,-0.626255,0.840062,-0.134215,-0.0344301,0.33385,0.466341,0.0115415,0.210754,-0.453198,0.209436,-0.0247822,0.718992,0.597238,0.703875,-0.48016,0.354235,-0.729795,0.131857,0.182505,-0.0611906,-0.391319,0.30588,0.690874,0.221189,-0.163231,-0.0600158,0.580361,-0.789302,0.0950376,0.968209,-0.614326,-0.439425,-0.146549,-0.123713,0.445121,0.956845,-0.747069,0.60916,-1.15207,0.33036,-0.68992,0.593608,0.854244,0.90515,-0.661241,-0.802326,-0.00442581,1.108,-0.746957,0.960183,-0.236664,-0.771216,0.502703,-0.197409,0.0736764,0.443519,0.0879419,-0.983786,1.40907,-0.597856,-0.894389,0.491009,0.0583143,0.762718,0.0652996,0.106563,-0.11928,-0.31745,-0.84865,0.576499,0.962567,0.640667,-0.945818,-0.48986,0.657304,-0.501466,-0.61132,0.142717,-0.631848,-0.657859,0.0950895,-0.597027,-0.125682,-0.549516,0.235995,0.00397719,0.632041,-0.580654,-0.534879,0.133177,-0.745701,0.86405,-0.482016,-0.550092,0.680892,0.0533163,-0.937015,-0.339717,0.481122,-0.196216,-0.807421,-0.298721,-0.783736,-0.385786,0.31183,-0.318819,0.861176,0.591236,0.0880353,-0.124396,-0.150278,-0.229881,-0.720364,-0.0617564,-0.858651,0.0786494,0.441228,0.854164,0.941942,-0.0420695,-0.358,-0.195796,-0.165951,0.531885,0.824666,-0.641509,0.429604,-0.810627,-0.429303,-0.921178,0.666039,-0.510158,0.349822,0.668631,0.672377,0.0739642,0.178473,0.626349,0.252918,-0.430207,0.357126,-0.12036,-0.000640331,-0.538779,0.139089,0.557737,0.234929,-0.324164,-0.299677,-0.172607,-0.395588,-0.191153,-0.15897,0.0451759,-0.429886,-1.01749,-0.0599846,-0.835868,0.280038,-0.032877,0.287674,0.0664743,-0.0649328,-0.711359,0.499412,0.218247,-0.434809,-0.50054,-0.242894,-0.380403,-0.0124267,0.744128,0.261904,0.696627,-0.362509,1.00885,0.247875,-0.0529248,-0.542172,0.148401,0.634648,0.672615,0.424358,-0.591201,-0.287036,-0.211624,0.896818,-0.400546,-0.162794,0.87893,0.110174,-0.878248,0.898709,0.889153,-0.527937,0.362402,-0.277363,0.855244,0.0696499,-0.375544,-0.574588,0.622518,0.385395,0.778012,-0.95389,-0.49017,0.0150847,0.740475,0.0568176,0.527477,-0.37277,0.303249,0.887229,-0.597402,-0.618991,0.453585,0.602257,0.172296,-0.0307637,-0.398102,-0.0169147,0.372481,-0.45569,-0.0367908,-0.324427,-0.167035,-0.0524978,-0.497977,0.163203,-0.145941,-0.0758097,0.0636653,-0.442692,-0.327236,0.391659,1.40024,0.529052,-0.110457,0.0438559,-0.226942,-0.33443,0.369491,0.70767,-0.0282513,0.371153,-0.145786,0.55056,0.207725,-0.092874,0.028907,1.34115,0.27413,-0.801564,-0.295227,0.733777,0.235025,0.30578,-0.987873,0.175759,-0.820998,0.388209,0.0964049,-0.061167,-0.494975,-0.764512,0.684619,-0.0525375,0.130862,1.38113,0.415441,-0.368263,0.169937,-0.634787,-0.280687,0.158222,-0.690447,1.04949,0.187089,-0.550348,0.503178,0.371598,0.14572,0.502827,0.235953,0.112793,0.689494,0.310151,-0.212888,0.149811,-1.08611,-0.612987,-0.0789157,0.469316,-0.317555,0.0464579,-0.372902,0.0796536,0.474936,-0.256223,0.298913,-0.254482,0.447087,-1.37479,-0.056699,0.687469,-1.22644,0.497558,0.0224545,0.584531,0.403385,0.556714,0.00658803,-0.636958,0.331056,-1.03532,0.143432,0.176365,0.0566702,-0.419255,0.149147,-0.834952,0.127238,-0.342399,-0.247605,0.400608,0.221904,-0.223608,0.197418,0.21869,-0.669959,0.298227,-0.157664,-1.68852,-0.324954,-0.257147,-0.439581,-0.443397,-0.18386,-0.207201,-0.166835,0.412849,0.0848964,-0.0920917,0.838832,-0.861656,0.565112,1.60308,-0.0362089,0.423086,0.420374,-0.925542,0.965957,0.471604,-0.339871,0.502135,0.434102,0.0664736,-0.238532,0.134207,-0.105672,0.342042,-0.0328943,-0.757034,-0.102468,-0.128823,-0.640201,-0.0295614,0.0525959,0.0866479,-0.0742897,0.828681,-0.456815,-0.316096,0.160979,-0.613632,-0.435651,-0.362021,-0.996094,0.55495,-0.0567771,-0.81745,0.0846041,0.428233,-0.325383,0.0228616,0.190827,0.317729,-0.640158,0.405586,0.194795,0.267461,-0.0294032,-0.316056,-0.280264,-0.135944,-0.754695,0.26276,-0.25551,-1.0476,-0.196669,-0.310337,-0.21581,0.937441,-0.145565,-0.712479,0.0635191,0.0620777,-0.0940729,-0.317446,0.246548,-0.664246,0.475473,-0.211857,-0.289518,0.0462764,0.534835,0.198289,-0.253999,1.23356,0.616428,0.660489,0.0842505,0.792059,0.294911,0.851497,-0.444091,0.0797306,-0.166197,-0.407287,-0.128709,-0.498791,0.187537,-0.0811727,-0.212544,0.869184,-0.546865,-0.677102,-0.538305,0.185139,0.31466,0.409522,0.669522,-0.350318,-1.15902,0.444878,0.428056,-0.516656,0.827588,0.306415,0.629564,0.545882,0.395079,0.923576,1.19387,-0.662469,-0.269167,-0.935368,1.02771,-0.240506,-0.204656,0.291504,-0.297033,-0.744637,1.12891,0.169613,-0.245596,-1.00946,1.23377,0.833873,0.319017,-0.802683,0.110098,-0.175298,-0.453479,1.08529,0.167397,0.470382,-0.67548,0.0423295,0.36919,-0.570028,-0.122738,1.07881,0.35702,-0.256566,-0.145151,0.0734675,0.954278,-0.484765,-0.180905,-0.00261756,0.83665,-0.12118,0.673093,0.156974,-0.919225,0.522589,-0.384018,0.497211,-0.452865,0.953271,-0.214106,-0.858324,0.230651,0.0916853,-0.715088,0.0697009,-0.590188,-0.695719,0.785088,0.594459,-0.499035,0.995939,-0.338362,-0.868797,-0.67665,0.921845,0.723904,0.158163,-0.858493,0.166988,0.657446,-0.0223471,0.483434,0.417896,0.232458,0.545112,0.858322,-0.706445,0.561402,0.639172,-0.372643,0.129289,-0.162417,-0.449934,-0.821669,-0.469252,-0.67196,0.1114,-0.153003,0.648435,-0.482144,0.490781,-0.501907,-0.202795,0.830816,0.302728,-0.566391,0.844719,-0.857894,0.392254,0.802316,0.532856,0.0985882,0.124436,0.122257,0.0796334,0.646912,0.127375,0.654729,-0.813575,0.842999,0.0352226,-0.711252,-0.0481604,0.0894042,0.477719,0.340137,-0.128736,-0.383906,-0.476251,-0.658988,0.44712,-0.752855,0.8731,-0.889906,0.23696,-0.559138,-0.801217,0.528869,-0.928056,-0.702102,0.520077,-0.516834,0.0286263,-0.216921,0.0973016,-0.785761,-1.21036,0.0782951,-0.491392,-0.14282,0.0586905,-0.566548,0.895851,0.839229,-0.219683,-0.101116,-0.654399,0.669488,-0.55726,-0.0634933,-0.0749248,0.36495,-0.179776,0.134039,0.600247,-0.669937,1.03755,-0.118717,-0.577618,-0.851656,-0.287529,-0.530018,0.210243,0.0366858,0.0733642,0.567796,0.0785907,-0.300254,-0.575725,0.626167,0.541456,0.515353,-0.80296,0.221524,0.737776,-0.5848,0.0260561,0.80961,0.0164337,0.199619,0.128635,0.612512,-0.241905,-0.00204504,0.558305,-0.0819351,-0.245835,0.700725,1.34092,0.372505,0.150029,1.28737,0.271037,0.0667899,0.0977274,0.145764,-0.0519536,-0.380108,0.087499,0.27917,-0.187234,-0.0553022,-0.876618,-0.102741,-0.246712,-0.754125,-0.278706,0.926807,-0.649382,-0.182982,-0.312366,0.549548,-0.383668,-0.825818,-0.225356,-0.170459,0.215803,-0.208182,1.23544,0.0127571,0.715398,-0.062996,0.0015355,0.473025,-0.153876,0.367917,-0.557727,-0.823302,-0.403602,0.257088,-0.458565,-0.605656,-0.187229,0.229599,0.147579,0.453043,0.412928,-0.144575,-0.399278,0.363244,-0.549008,0.240986,-0.474548,-0.507203,-0.396854,0.10393,0.238777,-0.580772,-0.319908,-0.0450442,-0.681727,-0.124804,-0.426585,0.160707,-0.0756465,-0.377413,0.046637,-1.02179,-0.312627,0.13886,-0.459226,-0.448145,0.371222,-0.445409,0.99747,-0.274733,0.841288,1.06377,-0.0543311,0.457697,-0.951617,0.150807,-0.055412,-0.667513,0.271125,0.084153,0.149642,0.544341,-0.0682675,-0.400672,0.363023,-0.329027,0.542909,-0.238319,-0.335567,0.10814,0.530609,-0.390082,-1.09333,0.826073,-0.21578,0.930497,0.299392,0.0886826,0.817945,0.270161,0.271861,-1.19894,-0.531831,0.860428,-0.330002,-0.408037,0.0228864,-0.637343,1.12546,-0.212238,0.357807,0.104686,0.104022,-0.291252,0.358813,-0.579965,-0.81854,0.950447,0.29815,-0.78693,0.447746,-0.392646,-1.26496,0.317816,0.100762,-0.402731,-0.118466,0.309516,0.057282,-0.421077,0.34606,-0.477272,-0.463072,0.25238,0.313,-0.694322,-0.0919643,-0.875807,0.455729,0.247225,-0.0797234,0.198122,-0.592193,1.04725,0.554521,0.616241,-0.789956,0.390545,0.151372,-0.450965,-0.281268,0.439722,-0.563666,0.178645,0.705471,-0.0122266,-0.24321,-0.317573,0.115074,0.40724,0.661181,0.305136,-0.367038,0.360713,0.0232194,-0.457204,0.686018,-0.442459,0.844759,-0.0060802,0.0363563,0.301595,0.253647,0.807214,0.385577,0.644146,0.395182,-0.305593,0.558042,0.306274,0.203664,-0.504388,-0.370523,-0.535227,0.412581,-0.516685,-0.10607,-0.612776,0.70241,-0.2078,0.440038,0.77509,-0.132736,0.0725598,-0.045604,-0.318409,0.255258,0.138148,0.628123,-0.40586,-0.220377,-0.0899786,0.146544,0.378509,-0.198163,1.30596,-0.710961,-0.193017,0.822438,-0.248135,-0.245769,-0.859751,-0.639595,-0.50007,0.359426,-0.639161,0.063608,-0.167823,0.21663,0.154162,0.79926,1.04362,-0.673244,-0.62855,0.0702507,1.28907,-0.64668,0.43093,-0.922176,-0.603969,-1.47694,0.36822,-0.0157829,-0.515568,0.887359,1.05811,0.775233,0.475888,-0.344839,0.280719,-0.293488,-0.0450997,-0.571665,-1.38272,0.624207,-1.36686,-0.340654,0.948792,0.746193,-0.577695,0.874682,-0.556246,-1.24072,-0.766474,0.377066,-0.463843,-0.162786,-0.218909,-1.27852,-0.736394,-0.39393,0.96663,0.218899,0.657162,-0.983257,-0.0393357,-0.165334,-1.11317,-0.450096,-0.303383,-0.677782,-0.848899,-0.238771,0.240806,0.147538,-1.123,-0.166627,-0.690656,-0.197275,0.0412037,-0.0382604,0.140769,-1.08966,0.297148,-0.213191,0.0453054,-0.786944,0.762384,-0.711763,-0.779316,-0.455451,-0.183999,-0.206671,-0.777986,0.782462,-0.269797,0.234704,-0.83107,0.027171,-0.0985942,-0.124368,-0.535489,-0.540067,-0.881835,0.278556,-0.239206,-0.0630213,-0.56309,0.193073,0.343651,0.999049,-0.150249,0.0191864,-0.105073,0.193391,-0.345907,-0.798163,0.251738,-0.121699,0.222285,-0.190063,-0.205034,0.875773,0.932087,0.710866,0.318194,-0.523838,0.216356,0.818077,0.703725,0.878323,-0.30674,-0.728958,-0.317833,-0.555293,0.631818,0.775358,0.95789,-0.27745,-0.975987,-0.892882,-0.0269778,0.907604,-0.229361,0.26447,0.187198,-0.252152,0.734571,1.23843,0.553066,-0.663079,-0.740842,0.950944,0.936556,-0.597866,1.03624,-0.277118,-0.279081,0.0488488,-0.354296,0.574188,-0.333729,-1.12648,0.566631,-0.657447,0.81069,-0.610985,0.914199,0.588514,-0.642722,-0.0193783,0.625069,0.522286,-0.625809,0.153496,-0.819719,-0.328451,0.179048,1.03147,-0.034138,0.0470976,-0.0322679,-0.22621,0.287416,0.0160789,0.198948,-0.041877,0.451803,-0.679288,-0.977396,-0.569334,0.0194461,-0.255811,-0.789094,0.233488,0.037257,0.476143,0.305992,-0.0742416,-1.00436,0.712253,-0.567331,-0.656937,0.0328512,-0.306195,0.482575,-0.699912,-0.533507,-0.502029,0.351933,0.976438,-0.745929,0.609569,-0.0262818,-0.215361,-0.0465695,0.168342,-0.516455,0.464005,-0.359395,0.229891,-0.892041,-0.545368,-0.0737512,-0.174003,-0.854242,0.673295,0.198525,-0.468525,-0.574788,0.977871,0.399715,0.893449,0.500676,-0.905152,-0.0393251,0.238603,-0.0739745,-1.5988,-1.019,0.280181,0.233584,-0.280248,1.10192,-0.332015,-0.0942033,0.233627,0.506035,-0.231982,-1.095,1.13414,0.563692,-0.644393,0.22317,0.26619,-0.206986,-0.30856,-0.50207,0.691391,0.698877,0.39876,0.342966,-0.664461,-0.495873,-0.0628205,0.153324,0.154803,-0.751248,-0.53253,-0.0858069,-0.982637,0.815764,0.546109,-0.272041,0.962139,-0.0652685,0.259003,0.724695,-0.0231912,0.223858,0.843713,-1.07472,-0.57932,-0.110777,0.398143,0.151294,-0.865719,-0.486913,0.381613,0.909518,-0.705939,-0.404785,0.190443,-0.205744,-1.08257,-0.920816,0.114975,-0.943972,-0.64674,0.0904553,-0.416947,-0.336873,-0.117144,0.556952,-0.933751,0.772231,-0.0654046,0.0147746,0.475451,0.106221,0.0286198,-0.413379,-0.467278,0.328328,0.201747,0.63126,0.400499,0.0368886,0.934168,0.595538,-0.828914,0.205398,0.189694,1.14142,-1.24555,-0.856369,0.365037,-1.62723,1.67191,-0.201606,0.11682,-0.703297,0.0323783,0.624658,0.691947,-0.0442788,0.216583,0.321531,0.884093,-0.434236,-0.477194,-0.453132,0.303383,0.558212,0.677282,0.525379,0.222159,0.541356,0.476982,0.1537,0.293066,-0.407288,0.337341,-0.116347,-0.364438,-0.457266,-0.29386,-0.183304,0.923304,0.234752,-0.0418066,-0.238464,0.662637,0.0236942,-0.189689,0.344595,0.59787,0.552121,0.209724,0.627025,0.186618,-0.299438,-0.307043,0.152747,0.258328,-0.541886,-0.221934,0.434742,0.882747,-0.944826,1.13697,0.0954999,0.0682813,-0.596832,-0.106118,0.0876329,0.198069,-0.00948666,0.510833,0.260084,-0.335748,-0.717034,-0.265494,0.489892,0.416525,0.572816,0.219898,-0.400451,0.382645,-0.437262,0.231915,-0.405219,-0.202652,-0.157613,0.233951,-0.258692,0.303489,0.24025,0.00482941,0.1397,0.953986,-0.147675,-0.61371,-0.711504,-0.0256509,-0.576502,0.349889,-0.16548,0.40665,0.21316,-0.492532,0.189021,0.703816,0.740126,0.740491,0.369933,0.28455,-0.721574,-0.415618,-0.237875,-0.0197965,0.588736,0.123736,0.298981,-0.390388,-0.581128,0.0480352,-0.489301,0.781806,0.917124,0.363596,0.445728,0.371547,1.02177,0.746793,1.3279,-0.260781,0.0601375,-0.865825,-0.673848,0.127702,0.324662,0.642197,0.455567,0.706276,1.66422,-0.561281,0.287057,-0.68795,-0.0724692,1.5541,-0.658757,0.173164,-0.226627,-0.617218,-0.87151,0.0963521,0.930035,0.750695,0.132936,0.709599,-0.782741,-0.484427,-1.15402,0.715249,0.285178,-0.934273,-0.700161,-0.986124,-0.378523,-0.678398,1.04528,-0.590823,0.817257,0.754797,0.492423,-0.038258,-1.08445,-0.374378,0.941331,-0.522676,0.831775,0.840785,-0.273991,0.416125,0.33157,-0.890959,-0.762812,0.269921,-0.318442,0.368439,0.959381,-0.0812904,-0.11839,0.860895,0.165882,-0.70461,0.183407,0.40936,-0.575039,0.330782,-0.556781,-0.862274,-0.701448,0.473255,0.433125,0.883776,0.527669,-0.554995,0.585104,-0.289624,0.272011,0.0818048,-0.833391,-0.850599,0.0262259,0.0394857,-0.285277,0.368891,0.203468,0.392322,0.874867,0.125751,0.0447385,-0.61628,0.441563,-0.302369,0.93043,0.0413479,-0.465031,-0.724856,0.291014,-0.678029,-0.0205538,0.568522,-0.133504,-0.775968,-0.26765,-0.400089,-0.52883,0.620729,-0.889704,0.926507,0.06322,0.374839,0.525051,-0.0554506,-0.0981086,0.0261993,-0.0598533,0.295152,-0.305122,0.364646,0.366146,-0.211401,-0.182171,-1.13289,0.0411165,0.841094,-0.163109,-0.6768,-0.857566,-0.269164,-0.00836586,0.643145,-0.643312,1.0288,0.0707564,-0.743913,0.673088,0.420594,-1.09634,-0.717681,0.169785,-0.563294,-0.618005,0.356292,-0.449212,-0.550167,-0.0765285,0.374722,0.502145,-0.823671,1.10939,-0.038195,0.80604,-0.724483,-1.11391,-0.230206,0.942102,-0.0924415,0.102681,0.376861,-0.240959,0.54478,-0.60067,-0.370342,-0.341692,-0.143131,0.405247,0.110087,-0.966008,-0.478951,-1.13569,-0.253807,0.482097,-0.704794,-0.00270107,0.631378,0.408935,0.0482565,-0.650045,-0.342629,0.177459,-0.383209,-0.513873,-0.259666,0.0630312,-1.05294,-0.686459,-0.558125,-0.163917,0.414126,-0.683472,0.984075,0.138954,0.634319,0.539657,-0.402525,-0.709123,-0.273687,-0.669104,0.489562,-1.17749,-0.485933,-0.514642,-0.230364,0.375183,-0.0880435,-0.158725,0.179912,0.77282,0.209017,-0.392852,-0.0775115,0.127769,-0.57742,-0.534238,-0.684728,0.150656,-0.773041,-0.289738,0.457124,-0.533546,0.0833515,0.715733,-0.0841368,0.724758,0.127745,-0.423256,0.0874201,-0.72282,0.0186326,-1.0635,-0.431213,-0.0866829,-0.758565,0.350971,0.645327,0.311345,0.637285,-0.0702399,0.571631,-0.2184,-0.525847,0.583592,-0.45042,-0.616536,-1.52851,-0.247141,0.127495,-0.464748,-0.938324,-0.775233,-0.279751,0.505523,-0.204405,-0.298888,-0.912513,-1.24241,0.542466,0.0261846,-0.379465,-0.876759,-0.0252733,0.47049,0.0572115,-0.349749,0.541854,-0.468919,1.29874,0.259948,0.19015,-1.4577,-0.176033,-0.127808,-0.671495,-0.279337,-0.464572,0.565364,-0.561902,-0.453475,-0.0863827,-0.112071,0.208624,-0.303289,-0.828824,-0.908157,-1.17205,-0.894708,0.533299,-0.917034,-1.37148,-0.541545,1.17396,0.691572,0.516917,-0.0322792,0.0335869,-0.318362,0.362305,0.063405,-0.828989,0.738344,-0.415655,-0.897157,-0.615511,-0.331827,0.126427,1.53019,0.601005,-0.330937,-0.19007,1.25465,-0.508445,0.265819,0.447024,-0.19254,0.531068,0.529396,-1.37401,0.380111,-1.07407,0.993975,0.475186,1.36577,-0.521139,0.123992,0.13822,0.12177,0.341283,-0.00225044,0.745709,-0.936166,-0.460401,-0.927855,0.519442,-0.619807,1.10096,0.46167,1.17727,-0.101119,0.400635,0.493103,-0.956311,0.975264,0.209153,-0.613787,0.492532,-0.358075,-0.818656,0.359413,-0.772003,0.719488,0.200994,1.46668,-0.94199,0.382597,-0.241844,-0.416605,-0.251483,-0.273099,0.62147,0.213379,-0.108043,-0.669821,0.602068,-0.121729,0.359851,0.22979,1.3279,-0.345664,0.0610163,0.0747974,-0.651311,0.919332,0.127375,0.554473,0.26763,0.195091,-0.272983,-0.194219,-0.142109,1.41546,-0.259895,0.638382,-1.14026,-0.29383,0.324253,-0.0265876,-0.0198587,0.590219,0.32358,-0.313228,-0.923593,0.436,-0.0232757,0.435808,-0.423587,-0.0166291,1.35042,-0.7794,0.272238,0.0129477,-0.562563,0.924248,0.333786,-1.04543,0.141581,0.465974,-0.229724,-0.175578,0.190552,-0.176146,-0.655126,-0.0478471,-0.794855,-0.819191,-0.115029,-0.526084,0.920652,0.300375,0.589822,-0.0309904,-0.704561,0.750835,-0.887157,-0.259914,0.499609,-0.259146,0.170871,-1.04519,0.584804,0.729738,0.521467,1.04488,-0.556957,-0.488253,0.420168,0.197528,-0.128125,0.408902,-1.00418,-0.424987,0.959668,-0.893182,0.554115,0.369507,1.00069,0.423714,0.160451,-0.0341288,-1.033,-0.383961,-0.550529,-0.182509,-0.165872,-0.576291,-0.578682,-0.268095,-0.808341,-0.418405,0.229635,0.616271,-0.870332,1.27054,-0.0705441,-0.371734,0.626573,0.675956,0.575034,-0.103974,0.0580439,-0.0622573,-0.818042,0.860836,-0.585858,0.115584,-0.728062,0.871387,0.471718,-0.487409,0.252281,0.0687359,0.360534,0.085289,0.813724,-0.604182,0.346214,-0.404871,0.193122,-0.57519,0.450134,-0.233092,-0.572082,-0.469469,0.784269,0.86436,-0.271247,-0.480329,0.37122,-0.384561,0.883197,0.221467,-0.736294,0.512159,-0.468414,-0.838262,-0.978922,-0.357773,-0.550438,-0.573384,0.359075,-0.0327991,-0.793705,0.906,0.26176,-0.259946,0.956941,0.2901,0.1626,0.0210231,0.729835,-0.857263,0.610504,-0.223341,-0.144525,0.878697,0.248595,-0.614014,0.467482,-0.548138,-0.156373,-0.309397,0.872553,-0.23082,-0.852375,0.754236,0.277166,0.628241,0.851931,-0.418623,0.464842,0.607963,-0.227565,-0.25822,0.407236,0.0975242,1.20931,0.0244233,0.974384,0.773729,0.716801,-0.0848576,-0.749997,-0.499191,-0.508401,0.222274,0.0947778,-0.913718,-0.406879,0.634946,0.364691,0.0960224,0.652218,-0.738521,0.0146786,-0.558319,0.631823,0.523119,-0.699395,1.04793,0.120545,0.449576,0.00720189,0.0112524,0.157737,0.261154,0.387655,-0.311874,1.07742,-0.235938,-0.46398,-1.22576,0.0655247,1.19009,-0.656235,0.36811,-0.363896,0.188721,-0.473526,0.144612,-0.374787,-1.24974,1.35726,-0.527028,-0.410061,-0.0982991,0.155038,-0.252227,1.11784,0.273032,-0.187486,0.628285,0.0206717,0.191132,0.291642,-0.832163,-0.608331,-0.619082,-0.418146,-0.0846545,1.06247,-0.0588782,-0.526584,0.998569,0.696396,0.299242,0.0817601,0.707261,1.42419,0.306039,-0.993754,-0.832853,0.812127,-0.589281,-0.415892,0.0323475,-0.333818,0.234838,0.270247,0.827193,1.01299,0.820857,-0.0263981,-0.166752,-0.748919,-0.0376798,-1.92536,-0.0745721,0.475545,-0.183807,0.865663,-1.3769,-0.529692,1.14386,0.540934,0.188495,-0.453493,-0.434521,0.722327,0.265743,0.358856,-0.132873,0.509629,-0.470903,0.0401006,-0.454903,-0.817589,0.311568,1.10762,0.137617,0.227513,-0.634914,0.615738,-0.908089,-0.429359,-0.404278,-0.606753,0.282341,0.0480798,-0.825117,0.150375,-0.813349,-0.274656,0.601137,-0.573079,0.865571,-0.119027,-0.152553,0.84742,-0.68085,-0.080333,-0.153822,0.682201,0.411857,0.594158,-0.757204,-1.28322,-0.782717,0.48104,0.881091,0.230797,-0.91601,-0.24793,-0.35116,-1.57012,-1.14083,-1.1764,-0.0825724,0.00739118,0.793613,-1.0364,-0.648462,0.659544,0.731714,-0.369182,-1.37134,-1.06478,0.0423335,-0.00275618,-1.34031,-1.05168,-0.692757,0.533029,0.459616,0.17741,-0.368581,-0.46124,0.582989,0.0316597,-0.118283,-1.43887,1.04936,0.324259,-0.776932,-0.712031,0.452317,0.125094,0.533198,0.630911,0.707939,-0.951232,-0.0119584,-0.462903,0.212908,-0.121432,-0.728323,0.714459,0.096042,-0.220813,0.599692,0.673814,-0.461355,0.343598,-0.0761696,0.0560052,0.221619,0.2546,-0.648508,-0.224424,0.161502,0.548068,0.536291,-0.620898,-0.644248,0.662112,0.314341,0.153567,-0.179105,0.100913,-0.397239,0.570382,-0.162653,-1.06307,0.174809,0.319204,0.695916,-0.187862,-0.629878,-0.751493,-0.199715,0.162643,0.166169,0.231131,1.00383,0.328802,-0.122665,0.5823,0.0762874,0.440344,-0.586995,0.377375,0.0960744,-0.31047,-0.688305,0.511815,-0.459978,0.410677,0.0848594,1.82928,-0.130653,-0.0276767,0.307776,-0.249568,0.392174,-0.399841,-0.115075,0.746302,-0.419255,0.1928,-0.0264495,-0.580897,0.06894,-0.277299,1.81521,-0.703579,0.383396,-0.754254,0.74717,-0.576837,-0.196901,1.01897,0.383735,-0.412479,0.237698,0.144417,-1.37099,1.00593,-0.718494,1.16477,-0.319574,-0.318288,-1.02646,0.554059,0.402601,0.780032,-0.128151,0.43705,-1.27743,-0.00154225,-0.169583,-0.714514,-0.21485,-0.790995,0.582565,-0.643193,0.405388,-0.152778,0.916162,0.362848,-0.414508,1.42274,0.381263,0.839404,0.563469,-0.131317,0.0454604,0.333191,-0.128134,1.20008,-0.692155,0.733115,-0.961177,0.999407,-0.256666,-0.068994,1.32199,-0.0382056,0.312144,0.644037,0.828337,-0.880106,0.0601875,-0.817182,0.213221,-1.21956,-0.820301,-0.809829,-0.508026,-0.126873,-0.241447,1.04914,-0.0505208,0.0530589,1.07785,-0.619395,-0.206442,0.507697,0.600864,-0.625614,-0.120513,0.947564,0.668668,-0.832614,-0.346598,-0.130282,-0.071483,0.938872,0.673301,0.822821,-0.817487,-1.03421,-0.371592,0.300821,-0.51633,-0.316389,-0.333662,0.485031,-0.364313,-0.513344,-0.533372,-0.0335679,0.577372,-0.107411,0.947193,-0.788581,-0.677458,-0.55238,-0.425632,0.147474,0.595817,0.93838,-0.61829,-0.231147,-0.995793,0.707152,-0.445315,0.866855,0.983156,-0.512215,0.192606,-0.211749,0.537775,0.746152,-0.448288,0.609803,-0.76999,0.726513,0.258903,-0.646857,-0.153906,0.00415682,-0.542613,0.248974,0.54444,-0.690492,0.0736267,0.450066,-0.927659,-0.881591,0.410506,0.922993,0.643402,0.236733,-0.593648,0.629395,-0.230429,0.0640605,0.375485,-0.865473,0.47024,0.640874,0.22848,0.133271,-0.0547421,0.724985,0.146512,-0.377846,-0.154346,0.0857006,-0.470844,0.926273,0.88597,0.77448,0.89647,0.426491,-0.964934,-0.22311,0.443386,0.137182,0.318925,-0.368776,0.256898,-0.739846,-0.368408,0.247468,0.995225,0.901828,-0.358007,0.349108,0.369603,-0.537541,0.553169,-0.0474005,0.487228,-0.109421,0.333221,-0.207438,0.631054,-0.727225,0.446783,-0.250704,-0.110915,-0.048467,0.0465022,-0.723256,0.351212,-1.60286,0.480533,-0.174112,0.315242,0.739222,-0.0464501,-0.390106,0.579235,-0.202345,-0.432829,-0.810951,-0.0985535,-0.226896,-0.17504,-0.0243438,-0.666331,-0.203321,0.850721,-0.188924,0.146022,-1.00322,0.655838,-0.122407,-0.0833892,-0.344823,-0.57613,0.0609545,0.914467,0.198989,0.135901,-1.38762,0.305107,0.114673,-1.0823,-0.304205,-1.05697,-0.456601,0.843689,-0.1473,-0.589989,0.0629427,-0.531254,0.523277,0.21452,0.429539,-0.933728,0.476017,-0.138969,0.627412,1.07246,-1.49043,0.784619,-0.188413,-0.572251,0.69128,-0.980503,-0.156605,-0.636003,-0.145843,0.341806,-0.164637,-0.192379,0.500701,-0.210989,0.112978,-0.453716,-0.56214,1.95218,-0.0546295,-0.856095,0.0308514,-0.326583,0.273378,-0.670528,0.165325,-0.341117,-0.0521203,0.149229,0.163849,0.493839,-1.55283,-0.563048,0.207825,1.036,0.348895,-0.443526,0.181843,0.18742,-0.467478,0.303942,-1.05158,-0.354809,-0.472784,0.505771,0.903169,-1.76959,-0.374752,1.50785,-0.665258,-0.0665525,-1.77149,0.319211,0.255918,-0.230948,0.311263,-0.306947,-0.452148,0.116987,0.852248,-0.792416,-1.11515,-0.842413,0.125388,-1.26261,-0.096558,-1.28463,0.858698,-0.42547,-1.08077,0.423289,-1.06573,0.0904114,-0.0377939,-0.361346,-0.754673,-1.60089,-0.206351,1.30339,-0.732322,-0.685931,-0.0781269,0.282645,0.586845,0.806753,0.0628358,-1.47663,0.306064,0.128763,1.1492,-0.966539,-0.498647,0.439829,-0.0120096,-0.0396482,-1.48285,1.54739,-0.785879,-0.598623,0.960585,-0.302375,-0.329012,0.626649,0.0625697,-0.0407815,-1.12264,-0.0913914,-0.465646,-0.0455452,0.517562,0.191472,0.69654,0.371251,-0.0477614,-0.171157,-0.353389,0.265364,0.803266,0.317372,0.744264,-0.366956,-0.62329,-0.675363,0.497949,0.443403,0.422316,-0.300697,-0.0446894,-0.568481,-0.564133,-0.270104,-0.0467257,-0.446328,0.6186,0.527875,-0.460341,-0.401485,0.476928,0.125072,0.36159,-0.184137,0.469738,-0.618817,-0.834701,0.368224,-0.337735,-0.436434,0.694267,0.305712,0.52793,-0.344125,-0.0205911,-0.255945,0.55898,0.755692,0.0031728,0.596871,-0.390643,-0.0721075,0.313655,-0.311072,-0.449695,-0.170198,0.315973,0.918195,0.0548707,-0.245169,0.127023,0.232247,0.607273,0.576687,0.654081,-0.611262,-0.930401,0.0640423,0.142375,-0.116893,0.639576,1.1845,-0.520963,-0.541721,-0.939059,0.229767,0.115282,0.282621,0.44474,0.512204,-0.123536,-0.781795,0.872523,-0.270399,0.589293,0.408899,1.50768,-0.364698,-0.735091,-0.440626,0.743796,-0.685272,0.0964124,1.47106,1.47939,0.405165,0.206558,0.286197,0.626429,0.680314,-0.56191,1.25937,-0.562393,0.0636113,-1.45913,0.0528562,0.566621,0.050509,0.203625,1.05413,0.892033,0.813967,-0.248921,-0.608125,0.665147,-0.0703151,1.73924,0.0244778,0.353558,-0.879833,-0.284608,-1.1165,0.171533,0.640232,0.87071,-0.0590761,1.05553,-0.306654,-0.48695,-0.251399,-0.996343,-0.363311,-0.76842,-0.706635,0.107532,0.954643,-0.416509,0.554387,0.723963,0.617963,0.4581,-0.254829,-0.909368,0.373273,0.0136754,-0.836837,0.939477,-0.829372,-0.260238,-0.905252,-0.671498,-0.383744,0.949419,0.52871,-0.159904,0.259187,-0.730902,-0.935005,-0.502012,0.459532,0.084406,-0.717705,-0.981301,-0.139703,0.185491,0.640435,0.381796,-0.508901,0.540797,0.239268,0.0227259,-0.489211,-0.723752,0.54343,-0.0417959,0.434692,0.16691,-0.981065,-0.462737,-0.0508099,-0.192747,-0.762222,-0.760648,-0.409876,0.921755,0.0761399,0.0576115,0.519166,-0.143032,0.889323,0.459128,0.0488937,0.530272,0.826236,-0.610587,-0.417078,0.0198109,0.3494,0.4837,0.651838,0.256948,-0.523449,0.810916,0.87021,0.771694,0.0754321,-0.0930513,0.947156,-0.970464,0.444127,0.895733,-0.907901,-0.478274,-0.32571,0.291773,-0.93767,0.669526,-0.714382,-0.283959,0.796764,0.287923,0.630696,-0.225004,0.299084,0.779641,0.568294,0.023859,-0.549885,-0.103117,-0.139626,-0.254201,0.839341,0.525945,-0.424095,-0.0614098,0.47265,0.252522,0.658654,0.0985849,0.0461429,-0.164473,0.940535,0.623858,-0.788107,-0.0176222,0.970484,0.0459076,0.00349228,-0.763177,0.132151,-0.0600634,0.547405,0.553366,-0.368779,-1.05761,-0.543014,1.15824,-0.180404,-0.504758,-0.655323,-0.166661,-0.149558,0.105297,0.380074,-1.06259,-0.068898,-0.487389,0.393381,0.633037,-0.199223,0.0394645,1.23763,-0.59729,0.653648,-0.502931,-0.596376,-1.01083,0.339562,-0.961151,-0.230223,1.00682,0.889766,0.150792,-0.792123,-0.803288,0.0901522,-0.0600177,-0.201951,-0.300356,-1.28933,0.659626,0.317287,-0.322212,0.221308,-0.0391042,0.6683,-0.43896,0.670573,0.464621,-1.17496,0.62483,1.12095,-0.402336,-0.767859,-1.29017,-0.51366,0.070109,0.312665,-0.0948962,-0.112923,0.936923,0.293064,-0.65534,-0.920354,-0.104914,0.0630314,0.158742,-0.396588,0.26316,-0.518024,1.21403,0.651715,0.420389,0.816313,0.447951,-0.379111,-0.434088,0.341207,0.210371,-0.882793,-0.0829381,-0.110489,0.00727073,0.21934,-0.638893,-0.160404,0.562128,1.16656,0.00180994,-0.3453,-0.212617,0.458006,-0.156423,0.573668,-0.330343,-0.245095,0.794226,-1.11314,0.782108,-1.3405,0.0633043,-0.0631329,0.240652,1.89991,-0.0900688,-0.243867,-0.0627221,-0.0747679,0.249625,-0.37564,-0.613863,0.428044,-1.39092,0.312995,-0.936472,0.700683,-0.191563,0.630437,1.06641,-0.477483,-0.306918,0.493107,0.184851,0.288573,0.465145,0.160099,-0.0803264,-0.178071,-0.429381,-0.786694,0.850881,0.150538,0.575602,-0.183076,-1.312,0.329906,0.480633,0.974631,0.32389,-0.375986,-1.12018,-0.427751,0.0219014,-0.788899,1.61844,0.494337,-0.246704,0.356221,0.0667434,-0.165041,-0.257616,0.00479579,-0.387219,-1.59833,-0.3976,0.709932,-0.0755093,-0.50325,-1.70108,1.25254,-0.213934,0.19191,-0.406931,0.619398,-1.05836,0.387277,0.457593,0.37064,-0.422248,-0.387084,-1.18832,-0.307515,0.347202,0.354222,0.677602,-0.573878,-1.17396,0.208408,0.839279,0.351097,-0.155212,0.262439,0.023148,-0.610534,-0.673198,-0.557523,0.502113,-0.32569,0.0402317,0.79068,0.838233,-0.590124,-0.210497,0.210435,-0.951784,0.309367,0.0889037,0.528936,0.258389,-0.8944,-0.437061,-0.264004,-0.484915,1.29212,0.456611,-0.262692,-0.59202,0.823523,-0.00403834,-0.15874,0.163834,-0.469228,-0.520003,0.0439006,-0.178333,-0.328169,0.108537,-0.682843,0.433131,0.583357,0.537216,0.431162,0.00532569,0.294306,-0.0531271,0.234158,-0.441841,0.662971,0.331813,0.387051,-0.715499,-0.0578709,-0.870379,1.07437,0.430591,-0.167609,0.308577,0.81687,-0.468005,-0.873056,-0.266236,0.548439,0.133396,-0.709088,-0.882153,-0.583187,-0.474261,0.486808,0.663831,0.424556,-0.295256,0.735711,0.233865,0.600491,0.116332,-0.00217631,1.10361,-0.763187,0.639362,-0.547166,0.302842,0.294884,0.341438,-0.117723,-0.569102,0.0323395,-0.0163525,-0.504938,-0.00726133,0.822727,-0.363884,1.52107,-1.17737,-0.516896,-1.04242,0.244514,0.501515,0.967657,0.280385,0.141614,0.246193,0.092746,-0.94541,0.375485,0.542423,0.0949516,0.856251,-0.61795,0.936434,-0.312108,-0.693346,-0.823102,-0.0542346,0.853978,-1.19921,-0.277343,-0.532632,-0.105907,-0.411983,1.02057,-1.29421,1.28184,-0.157897,0.799182,-0.657286,0.0295586,0.69022,-0.285261,1.31678,-0.034008,1.06834,0.459106,0.106055,0.118863,0.793139,-0.0347281,-0.846286,-0.548181,-0.693839,0.468096,-0.697408,0.902223,-0.479182,0.353431,-0.491496,-0.44205,0.930506,-0.627502,-0.0239034,0.368246,0.231096,0.957379,0.194359,0.787396,0.949424,-0.691152,0.588228,-0.201264,-0.895058,-0.899486,0.254641,-0.766964,-0.265379,0.0740042,-0.104308,-0.242163,-0.466166,0.10695,0.160888,0.900197,0.71435,0.694473,-0.0698765,0.855919,-0.776015,-0.917919,0.496152,0.542978,0.368068,-0.108703,-0.809317,0.879449,-0.916592,0.0205166,0.0552062,-0.0637687,0.947353,-0.110311,0.567836,-0.421701,0.947218,-0.906023,-0.865482,-0.126568,0.664653,-0.366416,0.0329943,0.8096,-0.364498,0.457141,-0.0690872,0.292125,-0.853817,0.486237,0.779826,0.59242,-0.243584,-0.627689,-0.979974,-0.237445,0.658953,0.359306,-0.674517,-0.190814,0.140913,0.126146,-0.363305,-0.0955501,-0.570699,-0.702197,0.423742,-0.704838,-0.984893,0.896493,0.303573,-0.207133,0.839424,-0.772887,0.685072,-0.414871,-0.78558,1.05811,0.134824,0.636596,0.589338,0.755481,-0.148375,-0.366221,-1.09674,0.531471,0.938358,-0.532716,-0.342846,0.848011,-0.0149461,-0.743691,0.30231,0.287426,0.466901,0.15213,-0.359984,0.512658,-0.530014,0.832087,0.167114,1.36756,0.00483799,-0.653551,-0.395825,-1.23199,-0.484921,0.0664956,0.207943,0.488163,0.137669,0.598652,0.607532,0.170305,0.682936,-0.365671,0.0818916,0.712261,-0.0949057,1.01397,-1.05681,1.09948,0.12857,-0.953248,0.365237,-1.30044,-0.326927,-0.134092,0.633912,0.677706,0.184315,0.689428,0.355865,-0.210453,0.729158,-0.989318,1.04031,0.36501,-0.546372,0.983111,-0.356337,0.418866,-1.05147,-0.11657,0.429115,-0.265086,0.0988977,0.167597,0.868216,0.688268,-0.44475,-0.210093,-0.604336,-0.617224,0.182432,-0.375241,-0.171882,-0.0671376,0.470198,0.497028,-0.409947,0.681536,-0.211451,0.104685,-0.102921,-0.566969,-0.360421,-0.24054,-0.33576,-0.237654,-1.08702,0.281404,-0.38422,-0.645782,1.04561,-0.982515,0.102983,-0.160956,0.362601,0.610461,0.229849,-0.0479689,-0.783599,-0.643093,0.290931,-0.065336,0.318756,1.31107,0.812696,0.728324,0.138071,-0.691845,-0.191403,-0.263747,0.102925,-0.799754,-0.279131,0.521523,0.224795,-0.355927,-0.467808,0.709094,-0.602209,0.940565,0.875779,-0.958609,-0.180918,-0.0686799,-0.120762,-0.704043,-0.482895,-0.96049,0.153233,-0.025767,-0.011739,0.188055,-0.244863,-0.0253711,0.995053,-0.070374,-0.397583,-0.105806,-0.022225,0.263634,0.0405552,0.338464,-0.647656,0.607169,-0.0414556,-1.52885,1.24521,0.929832,-0.536081,0.243847,-0.116108,-0.565918,-0.45661,0.0893159,-0.268593,-0.676315,0.257086,0.590475,-0.179222,0.483401,-0.356109,0.239206,0.425017,-0.414568,0.843131,-0.102554,-0.861516,0.529021,0.918184,0.625696,0.0615375,0.0333061,-0.406804,0.39583,-0.537767,-0.46951,0.747857,0.223315,-0.657591,0.500891,-0.13344,-0.22507,0.520872,-0.390779,-0.557593,-0.231797,-0.268147,0.0723716,-0.399552,0.332543,1.04999,-0.345286,-0.436879,-0.329837,0.0331,0.969895,-0.0949953,0.00224233,0.0258967,-0.373007,0.863089,-0.200991,-0.86038,1.14106,0.335346,0.073306,0.544556,-0.932295,-0.705193,-0.244827,0.0331254,0.544056,0.258966,0.165806,-0.53393,0.068883,-0.509914,-0.49841,-0.300415,0.120103,0.183427,-0.243416,0.200843,-1.03551,0.434218,0.484746,-0.0791732,0.758888,-0.496147,-0.699843,0.9841,-0.800868,-0.710818,-0.228061,0.0282893,0.265702,-0.0181275,0.0743145,-0.311938,-0.589423,0.192593,-0.77633,0.672548,-0.481465,0.174254,-0.233411,-0.0315845,-0.751803,0.686059,-0.399446,-0.212883,0.704274,-0.146137,0.568854,-0.505356,-0.519374,0.30104,0.118128,0.0104812,-0.00195306,0.300098,-0.603533,0.249118,-0.176018,0.0323735,0.37696,0.257819,-0.00563551,0.360793,-0.794421,1.17925,0.646098,0.480486,1.42445,0.0983961,0.846262,-0.173412,1.09243,-0.589012,0.359631,0.0774591,-1.46045,-0.349456,0.333503,-1.17856,1.16627,0.37498,-1.23317,1.2267,-0.236999,0.775337,-0.125299,1.16185,-0.810606,0.335753,0.802813,-0.644206,-0.254696,-0.467186,-0.442031,0.730318,0.460354,-0.765907,-0.398996,-0.632102,-0.485298,0.70143,1.04408,-0.620412,-0.89401,0.131479,-0.279109,0.470251,-0.160704,-0.0117305,-0.356698,-0.312534,-0.9343,-0.315208,0.641078,0.902915,0.284239,-0.155055,-0.0994395,-0.261616,-0.800959,-0.389208,0.313656,0.123172,-0.352392,0.28432,0.770165,0.483106,0.866934,-0.980138,-0.29091,0.565316,0.143262,-0.462201,0.267998,0.885997,0.751843,-0.956326,0.914078,-0.298686,0.62224,-0.36687,-0.710743,-0.810239,0.380262,0.54129,0.64898,-0.396392,0.598616,-0.366687,-0.0653394,0.629026,0.00854309,-0.515902,0.0270414,-0.263507,0.22185,-0.0995094,-0.241711,-0.163296,-0.119174,0.767287,0.066691,0.959017,0.0329781,-0.261946,0.378013,0.595523,0.957413,0.473053,-0.952979,0.0875539,0.526123,-0.406552,0.52277,0.69192,-0.711071,-0.449174,-0.648851,0.317379,0.628421,0.0240889,0.633559,0.153949,-0.0728036,0.241447,-0.0751186,-0.0265632,-0.319127,0.15149,-0.210087,-0.49239,0.723604,0.825103,0.420358,0.657317,0.260897,0.0259922,-0.728446,0.415768,-0.175745,-0.276442,0.993337,-0.132123,0.406729,-0.40655,-0.415554,0.773584,-0.161704,-0.672125,-0.906239,-0.920808,-0.188811,-0.136513,0.289139,0.258227,0.228189,-0.394107,-0.13239,-0.709236,0.415335,0.00712371,-0.486784,-0.414561,0.744031,-0.888369,0.0411244,-0.41878,-0.274267,0.600448,-0.899174,0.619229,-0.727482,1.13308,0.00613391,-0.216509,-0.102,0.0940217,0.382131,0.640034,-0.100662,0.443297,0.0360539,0.162052,0.557266,0.87629,-0.552281,0.254718,0.798551,-1.02164,0.889506,0.350207,-0.492731,-1.00331,-0.626091,0.415069,-0.792571,-0.0635801,0.414262,0.491388,1.09799,0.531793,0.277991,0.118912,-1.15701,0.781886,-0.864216,0.105347,0.551035,0.127339,0.474,-0.00128377,-0.322867,0.69041,0.192993,0.872897,-0.749107,0.173894,0.145063,-0.868356,0.801977,1.10174,0.284822,-0.791264,-1.47494,-0.142599,-0.856446,0.416666,-0.257344,0.849254,0.202522,-0.140354,-0.892227,-0.117906,0.22184,-0.411703,-0.0167338,0.503279,0.238721,-1.42603,0.0697814,-0.69778,0.712564,0.751807,0.529294,0.784115,0.463985,-0.303975,-0.0655089,0.324018,0.918998,-0.176626,0.764556,-0.0457765,-1.25747,-0.203071,0.0350839,-0.315517,0.966697,0.140246,0.913884,-0.377793,-0.349412,0.0661022,0.940997,0.838734,0.120623,0.786974,-0.517033,0.640696,0.448553,0.284379,0.0707311,-0.131901,0.109081,0.13761,-0.502269,-0.0333651,0.520232,1.29484,-0.537307,0.0643289,-0.85217,-0.320325,-0.281964,-0.130591,-0.223131,0.313313,0.536297,1.10835,0.0238205,-0.533124,-0.0680595,0.183707,-0.268733,-0.745197,0.156949,-0.977988,-0.733153,0.705492,-1.78108,1.18199,0.122879,0.172066,0.342702,0.368962,-0.634278,-0.256627,0.0670528,-0.159054,-0.966141,0.179854,0.537204,-0.346704,0.429549,-1.43899,0.888165,0.557238,-0.103281,-0.519608,0.813355,-0.356275,-0.253162,0.275336,0.454352,-0.494176,-0.00714393,-0.992362,-0.217316,0.792967,0.968165,0.797659,-0.302759,-0.304757,1.13842,0.679552,0.230443,0.596674,0.0657513,-0.449211,0.637945,0.152564,-0.487635,-0.13323,0.319855,0.891875,-0.35436,-0.0290082,-0.968172,-0.291034,0.513531,-0.235592,0.790248,0.384573,0.588184,-0.117919,-0.0815252,-0.941738,0.728456,0.629103,0.488071,0.699741,-0.0744698,-0.982887,0.766283,-0.18863,0.531622,0.701923,-0.261875,0.132863,0.625041,0.345164,-0.547727,-0.31168,-0.429394,1.4386,0.305912,-0.492583,-0.582678,-0.538634,-0.18862,0.126336,0.45173,0.0767266,-0.228349,1.39625,0.141325,0.823217,0.509506,-0.761658,-0.218524,-0.414009,-0.145223,-0.0417954,-0.190487,0.457942,1.28076,0.208266,-0.675034,-0.149477,-0.286247,0.256349,1.0876,-0.497188,0.71251,0.786617,-0.648551,0.4901,-0.420627,-0.669721,0.581019,0.517376,0.31537,0.608533,0.292667,-0.609799,0.551496,0.843419,0.0390325,-0.715052,0.062863,-0.381678,-0.627352,-0.718649,-0.62404,-0.243907,0.742273,-0.758009,0.5551,-0.739902,0.744199,-0.470981,0.329543,-0.109044,0.280778,0.22692,-0.523121,-0.593347,-1.1433,-0.590918,0.608203,-0.101204,0.0373952,-0.296526,-0.37236,-0.0669696,0.297466,0.217697,0.661782,0.302805,-0.314468,-0.331755,0.913399,0.193277,-0.316248,0.379077,0.894694,-0.586402,0.993762,0.0556963,-0.127123,-0.516063,0.992745,-0.0495916,-0.860306,-0.247357,0.48145,0.337491,-0.930402,0.750912,-0.110392,0.11916,-0.732334,-0.780653,0.246719,0.782161,-0.0562685,0.784018,0.464654,-0.958788,-0.386673,-0.108248,-0.297193,0.464706,0.249758,0.967259,0.452727,0.901302,-0.489876,-0.929624,0.69856,0.765168,-0.32771,-0.0107576,-0.14133,-0.857294,0.0193168,-0.803131,0.626098,0.14936,0.0449167,0.302072,0.271456,0.348825,0.720052,-0.513787,0.921131,0.256874,-0.847727,-0.970023,0.231166,0.645811,0.99824,-0.143378,-0.266952,-0.977501,0.636973,-0.108999,-0.917755,-0.556573,-0.59833,0.652548,-0.33293,-0.851352,0.424808,0.674588,0.225725,0.432425,-0.963128,-0.281474,0.130756,0.992026,-0.922236,-0.757414,-0.742715,0.27191,-0.758374,0.0750091,0.612757,0.947325,0.483274,-0.120714,0.847717,-0.204421,-0.454465,-0.153426,-0.662047,0.889965,-0.680806,0.999688,-0.0243597,0.623305,0.328339,0.822472,-0.600354,0.0131628,-0.624253,0.261255,-0.991961,0.8884,-0.819255,0.557854,0.152409,-0.465066,0.89357,-0.144177,0.683145,-0.249933,0.908971,-0.690414,0.715126,0.324359,-0.920099,0.205979,0.659415,0.693022,-0.716307,0.417763,-0.0873633,-0.885514,0.0703487,0.0923179,-0.341764,0.297442,-0.0951617,0.503185,-0.29633,-0.682181,0.73655,0.655626,0.140541,0.454609,0.437314,-0.365433,-1.16006,0.363509,0.752766,0.711261,0.609896,-1.20963,0.883487,-0.506312,0.364948,-0.696298,0.154522,0.00792691,0.0644208,0.164544,1.34822,-0.217124,0.154289,0.447541,0.395833,-0.314077,-0.552635,-0.0915838,-0.166592,-1.01641,-0.0839295,0.704247,0.282761,0.0645022,-0.639312,0.213891,-1.48871,-0.264398,-0.477111,0.0907885,-0.702407,-0.540216,0.386206,-0.61107,-0.408827,-0.709552,0.411377,0.0964394,0.467878,0.796535,0.245676,-2.24732,0.623392,-0.88715,0.201847,0.24057,-0.345511,-0.248294,0.358478,-0.292743,0.493478,0.204289,0.416243,0.295677,0.932733,0.937128,-0.690203,0.521336,-0.422077,0.196587,-0.36563,0.275274,0.706372,0.124191,0.438623,-0.271436,-0.427929,-0.367253,-0.0625524,0.254161,-0.48828,-0.731064,-0.298542,-0.293742,-0.00744382,-0.741108,-0.472101,0.317502,-0.390921,-0.466691,-0.0704241,0.540465,0.759994,-0.719256,-0.23136,-0.0569549,0.00981518,-0.386164,-0.395617,-0.640749,0.0524697,-0.628459,-0.477946,0.501745,0.508113,-0.245527,0.137006,0.94988,-0.685292,0.120414,-0.24208,-0.0420483,0.342074,-0.344513,-0.618579,-0.209136,-0.402336,-0.793092,0.872744,0.075224,-0.160223,0.502401,0.143066,-0.415042,-0.752346,0.506859,-0.0156326,-0.299849,-0.0416272,0.373571,-0.174316,1.05103,-0.772247,0.296968,0.0106619,-0.796942,1.24986,0.818203,-0.158335,0.770907,0.377043,0.125329,0.303416,0.145566,-0.873588,-0.541008,0.686988,0.484621,0.791616,0.756705,-0.17468,0.138995,1.10606,-0.441733,-0.205551,0.155629,-0.411642,-0.412381,-0.881377,-0.556923,0.200252,-0.703534,0.565789,0.103579,0.237896,-1.16742,1.03045,-0.189986,-0.162444,-0.288506,-0.146417,-0.176663,-0.124052,0.122257,-0.945262,-0.0122485,0.16123,0.335279,0.838224,0.0672796,-0.706866,0.402283,0.574918,-0.406384,0.23784,0.118141,-0.350592,0.307676,-0.373403,-0.91529,0.489548,-0.351361,0.661976,-0.00678859,0.311912,-0.0977145,-0.645942,1.0576,0.710457,0.385073,-0.276909,-0.449137,0.597905,-0.206446,-0.804937,0.520522,-0.107131,-0.205486,0.499633,-0.439487,0.0756709,-0.116387,0.684521,0.957065,-0.56889,-0.136667,0.510208,-0.104886,0.0461242,-0.47773,-0.53163,0.293472,-0.245462,-1.07935,-0.104174,-0.77626,-0.281576,-0.078846,0.551232,0.29664,-0.279335,0.128388,-0.437972,0.218726,0.471884,-0.328782,-0.753906,0.633444,0.216307,0.367985,-1.00646,-1.3466,1.24479,0.479605,-0.563017,-0.011781,0.0774246,0.743945,-0.539639,0.282044,0.253549,0.589706,0.859418,-0.122894,-0.383301,-1.51661,-0.138152,0.203056,-0.00538508,-0.018565,0.0607828,1.22067,0.510796,0.62661,-0.267306,-0.328643,-0.362206,0.174451,-1.21591,0.447552,0.47953,-0.37884,0.977302,-0.347054,-1.46109,0.913902,-0.699017,-0.20746,0.528231,0.200374,0.456299,-0.394119,0.808745,-0.721449,-0.152881,-0.330439,-1.2099,-0.642679,0.0401432,-0.510417,1.05829,0.138505,0.659428,-0.17084,-0.557645,-0.405029,-0.690823,-0.373973,0.503884,-0.785924,0.364291,0.711986,0.254677,-0.95887,-0.0127624,-0.61285,0.460789,-0.819713,0.910308,0.183719,-0.51594,-0.672857,0.171234,-0.809139,0.474728,-0.770092,0.714485,-0.45273,-0.211197,-0.612052,-0.381804,0.229979,0.504217,0.570632,0.132074,0.179334,0.937306,-0.508344,-0.288529,0.539091,0.303177,-0.0424027,-0.940102,-0.51681,0.187143,0.846727,0.124029,0.252728,0.322539,-0.491618,-0.147203,-0.0528373,-0.863075,-0.90338,0.64974,-0.60366,-0.272697,-0.165941,0.385624,-0.769947,0.704149,0.698308,0.731044,-0.368761,-0.171434,0.98043,-0.467415,-0.114053,-0.800218,0.698529,-0.0884304,-0.852344,-0.0236063,-0.130575,0.256571,0.0528688,0.248596,-0.128266,0.0654893,0.609044,0.0749493,0.786891,0.248272,-0.507624,-0.121019,-0.496911,-0.424187,0.816866,-0.320883,-0.66878,-0.0957799,-0.195841,-0.274061,-0.708269,0.691458,0.191397,0.659573,0.813576,0.216192,-0.150582,-0.0325473,0.876686,-0.0527409,1.00949,-0.544502,0.247868,0.73897,0.941048,1.01347,0.167708,-0.541023,0.59172,-0.566495,0.686722,-0.812776,0.682245,0.404409,-0.118661,-0.421803,0.208559,-0.128088,-0.459702,-0.637521,-0.17004,-0.15893,-0.691098,-0.446784,0.278436,0.449843,0.365945,0.86161,0.102426,0.309829,-0.228658,-0.863635,1.12958,-0.35179,0.866843,0.640355,0.194123,0.167602,-0.692258,1.0524,-0.323471,-0.740493,0.369731,-0.122834,0.67809,0.32512,-0.325649,-0.00664321,-0.370016,1.3462,0.339849,0.035016,-0.357619,-0.921794,0.296547,-0.442362,0.514284,-0.251557,1.17158,0.285303,0.481543,-0.551494,0.501185,-0.808287,-0.654147,-0.214875,0.280609,-0.535162,-0.918833,0.759511,-0.154326,0.592313,-0.581771,0.600529,0.949784,-0.483974,0.0654511,1.06673,-1.52539,-0.527758,-0.617553,-0.299614,-0.609596,-1.1066,0.286816,-0.127988,0.2161,0.597591,0.172773,0.133239,0.00155959,-0.486152,0.844221,-2.98899,-0.278462,0.295796,0.73697,-0.452975,0.471471,0.264149,0.358276,-0.449215,0.263363,0.724763,-0.243234,-0.722617,0.446392,0.673524,-2.30854,0.299054,-0.335365,-0.878803,-0.895027,-0.422096,-0.194297,0.21461,0.289079,0.548518,0.381846,-0.0245721,0.37311,0.203508,0.568694,-1.58877,0.259186,0.0143313,-0.832074,-0.187936,-0.505585,0.0440117,-0.105776,-0.440877,0.198963,0.179785,0.488971,-0.967285,0.209613,1.25244,-0.950301,0.646881,-0.497492,-0.640925,0.174846,0.0572275,-1.13289,0.961915,0.486721,-0.0642056,0.597612,0.303088,-1.02386,0.715385,0.0169035,-0.316705,-0.639465,0.907743,-0.679679,-0.911142,0.515666,0.639454,0.877035,0.378269,0.195725,0.304154,0.128721,-0.294948,0.271259,-0.150891,-0.170291,-0.359,0.143439,-1.14064,-0.255178,0.680881,0.228016,0.331687,-0.509884,-0.41657,0.431712,0.84092,0.00640407,0.312566,0.527816,-0.929523,0.185216,0.257774,-0.100663,-0.459736,-0.168182,1.19811,0.0583513,0.201024,0.00936316,1.07208,1.21973,-0.0712617,0.37756,-0.593055,0.352084,1.08212,0.220547,0.642988,0.748646,0.448729,0.821549,0.0638164,0.0141143,-0.193206,0.245407,0.598815,0.613173,0.475884,-0.201758,0.0379726,0.842634,0.504553,-1.02829,0.0104781,-0.260052,-0.121445,-0.978243,-0.0311478,-0.562188,0.297016,0.311774,0.419882,-0.688616,-0.391501,0.424848,-0.235349,-0.142753,-0.0369266,0.275632,-0.0725819,0.946598,-0.0687805,-0.265928,0.134482,-0.429516,-0.729895,-0.287578,0.0529426,-0.0728038,0.0695396,1.26287,-0.275661,-0.455987,-0.440434,1.16303,1.06838,0.19542,0.646554,-0.047886,-1.23173,0.863995,0.0747757,0.15315,-0.0965424,0.909044,-0.0927578,-0.433753,0.0629019,0.124848,-0.719252,-0.192082,-0.211845,0.992356,-0.266412,-0.414326,-0.602557,-0.227734,-1.11447,0.737224,0.928648,-0.107225,-0.441646,0.392354,0.229495,-0.800541,-0.428974,-1.0402,0.700843,0.463528,0.204382,0.384966,-0.0680393,-0.971329,-0.185666,0.0116331,-0.216289,0.0365192,0.0618434,-0.254919,-0.191637,-0.399827,0.564751,0.601946,-0.697782,-0.0102672,0.550226,0.426465,-1.70992,-0.107232,-0.131121,0.0856681,0.260856,-0.731899,-0.381048,-1.04374,0.132033,0.579856,0.789992,-0.0588305,0.140961,-0.48235,-0.125028,-0.030949,-0.391014,0.00705342,0.958116,1.45642,0.0504297,0.136239,-0.652672,0.889487,-0.109521,-0.152264,0.237305,0.59405,-0.701088,0.199205,-1.21734,0.772467,-0.188532,0.283208,-0.140175,0.0629354,-0.397694,-0.897035,0.659446,-0.653055,0.185268,0.03069,0.636154,0.72787,0.749736,-1.13976,-0.700368,-0.905072,0.518397,1.01823,0.0137327,-0.0919396,0.621631,0.677763,0.785228,0.861679,-0.104468,0.827511,0.607673,0.540237,-0.305725,0.798232,-0.171243,0.39879,-0.864527,0.442093,-0.21303,0.781424,-0.403493,0.17377,0.764319,0.379143,0.842349,0.981766,-0.578219,0.779448,0.601414,-0.221872,0.110935,0.975397,0.718075,0.697841,-0.843706,-0.547496,0.0854805,-0.391471,0.188353,0.15432,-0.918889,-0.728814,0.820881,0.887859,-0.697423,0.243021,-0.696868,0.590492,-0.446419,0.496815,-0.467577,0.402096,0.0219518,0.0259642,0.2076,-0.249548,0.389314,-0.811218,0.884079,0.0366668,-0.23946,0.286282,0.663906,-0.10961,0.498501,-0.910498,0.464652,-0.616689,-0.0579,-0.872893,0.414609,0.430211,0.104135,-0.132705,-0.487991,0.146628,-0.588779,-0.778459,-0.785302,0.0309354,-0.718549,0.833684,-0.41206,0.587431,-0.189579,0.492894,1.15302,-0.0665455,-0.259073,-0.0574214,0.305958,-0.101203,-0.538432,0.878673,-0.161396,-0.459081,0.250929,0.134971,-0.291346,0.819324,0.192167,-0.209332,-1.694,-0.338299,-0.721692,-0.174959,0.651103,0.885274,0.574763,-0.419809,-0.770884,-0.16678,0.696542,0.0111063,0.104996,0.52889,0.0264603,-1.06257,-0.810598,-0.545784,0.553067,0.887508,-0.405158,0.874781,-0.0887512,-0.510217,-0.203213,-0.135896,0.33147,-0.582155,-0.200985,-0.769957,-0.912672,0.222554,-0.0575634,0.248334,0.241604,-0.47134,-0.694247,0.542393,-0.226866,-1.10349,0.274114,1.05552,-0.0203791,-0.0221456,-0.576141,-0.225704,0.828374,-0.72651,0.624519,0.319883,0.167453,0.313045,-0.032574,-0.00196739,-0.373411,-0.905014,0.952823,0.587717,0.226968,0.452573,0.661808,0.124427,-1.39921,-0.00135999,-0.287764,0.0144277,0.0888689,-0.153523,-0.077951,0.367282,-0.129226,0.840893,-0.768641,0.334009,-0.735459,-0.494656,1.06344,-2.00961,0.336888,-0.825986,-0.13818,-1.31812,0.232874,0.168318,0.0589435,0.0279556,0.646613,0.173452,0.252616,-0.810233,0.616344,1.0178,-1.90442,0.0177906,-0.165891,-0.247037,-0.619561,0.265803,-0.603859,0.0628658,-0.0937944,1.10152,0.287355,-0.23473,-0.229863,0.363268,-0.616501,-2.45018,0.509956,-0.260322,-0.700702,-0.971603,0.247997,0.915405,0.206359,-0.585701,0.126062,0.817179,0.561064,-0.538874,0.358308,0.713999,-1.88292,-0.130537,0.00781521,0.63688,-0.796622,0.909184,0.67633,0.341483,0.472948,0.136389,0.963907,1.29456,-0.806603,0.310004,-0.0564151,-0.606449,0.492687,0.445311,0.359917,-0.194003,0.409779,0.00522204,0.676009,-0.34543,-0.0601354,-0.205413,-0.297585,0.173798,0.171206,-0.24379,0.349924,-0.378696,-0.121852,-0.694857,-0.134441,-0.480889,-0.522473,0.0479875,-0.253234,-0.0307897,-0.397768,0.572162,0.644874,-0.778162,0.43437,-0.30989,0.445181,0.839524,-0.453561,-0.333412,0.234852,-0.12647,0.0713383,-0.445211,0.0280258,0.251261,-0.672139,-0.100509,-0.555514,0.0574906,-0.595659,0.551929,-0.265194,-0.316799,-0.112038,0.638133,-0.355455,0.166382,-0.693948,0.699817,-0.734499,0.555286,0.663165,-0.0726774,0.598357,0.66234,0.610368,0.169189,0.0995235,-0.696359,0.827607,-0.516707,-0.325122,0.0234768,-0.292328,-0.381268,0.104738,-0.0307079,-0.115364,0.253989,0.646844,0.0819814,0.657001,-0.349825,-0.397273,-0.0659328,-0.668844,0.186007,-0.647351,-0.146251,0.614929,0.325913,0.182868,0.235844,0.410474,-0.351506,0.487821,0.541451,0.0699791,0.244517,-0.313466,-0.787721,-0.139469,-0.210605,-0.65038,-0.0163374,0.424337,0.888291,-1.09898,-0.16501,-0.33396,1.07973,-0.490679,0.968597,-0.0233144,-0.402795,-1.04258,-0.208939,0.922441,-0.420375,0.141261,-1.1021,-0.223277,-1.53157,-0.334902,-0.0716102,0.197533,0.755275,0.207147,-0.240716,0.226924,-0.919353,0.543119,0.60184,0.975113,-0.542225,-0.833148,0.00595799,0.122013,-0.124374,0.422283,-0.428044,0.783469,-0.85309,0.300639,-0.00864145,-0.914784,-0.972676,-0.440085,1.05031,0.838097,-0.148315,-0.274128,0.140236,-0.562886,0.585038,-0.10379,0.330204,-0.878952,-0.665711,0.528474,-0.604503,0.664741,-0.143549,0.949573,0.594643,0.127663,0.610271,0.112228,-0.731391,0.327911,0.902476,0.420243,0.272786,0.0819121,0.642235,-0.797181,0.554833,0.047595,-0.481908,0.881851,-0.365334,0.20105,0.13343,0.0531716,-0.318162,-0.297,0.494641,-0.653769,-0.00707975,0.200986,-0.621633,0.164078,-0.0924019,-0.296763,-0.0911125,-0.687965,-0.384127,0.765728,-0.995082,0.959754,0.162223,0.115059,0.761802,0.45615,0.0761266,-0.360412,-0.735418,0.586146,-0.35868,-0.429546,0.0304467,-0.949765,-0.501254,0.281978,0.828467,0.568065,0.788137,-0.356022,0.470654,0.296342,-0.163169,0.927843,0.110396,-0.739803,-0.500613,-0.801073,-0.223794,0.10685,0.595795,0.461189,0.652787,0.043309,-0.981984,-0.989909,0.271691,-0.987848,0.323564,-0.820007,-0.322387,0.983462,-0.910595,0.881836,0.324297,-0.585942,-0.104704,0.864317,-0.391703,0.257026,0.438854,0.991239,-0.537502,0.329882,0.178218,-0.152493,-0.740841,-0.59495,0.565123,-0.0811678,1.06379,0.0592565,-0.172451,0.25444,0.441562,-0.595673,-0.163947,-0.457683,-0.52219,-0.229865,0.525205,-0.742934,-0.187911,0.523054,0.3219,0.148933,0.235315,-0.117739,0.348433,0.473976,0.786667,-0.418343,-0.375664,0.66444,-0.921988,0.692598,0.278206,-0.117543,0.450744,-1.37621,-0.1957,0.878716,-0.204208,0.886327,0.79238,-0.355168,-0.0366104,0.0592071,0.0664379,0.522721,-0.0401124,0.735459,-0.396492,0.34436,-0.13729,0.125476,-0.120093,-0.376105,0.822539,0.0928141,-0.552612,-0.393917,-0.726143,-0.836162,-0.217104,0.603693,-0.79008,-0.184079,-0.0619988,-1.26612,0.517552,0.218833,0.950895,0.330854,0.503454,0.206492,-0.625605,-0.256356,0.573665,1.07855,0.0557039,-0.105932,0.480326,0.518455,-1.88473,-0.119772,0.0533574,-0.706468,0.77686,-0.423363,-0.341356,-0.566503,0.0864088,0.175943,0.516015,0.923422,-0.210665,0.354348,-0.931609,-0.0653973,0.18209,-0.616704,0.503064,0.738443,0.460332,-0.397241,0.430222,-0.431513,0.306574,0.804392,1.03668,-0.490031,-0.339839,0.842399,-0.851864,0.63881,-0.461071,0.796393,0.446615,1.03001,0.00135987,-0.475688,-0.0802862,-0.149017,1.04824,1.29489,-1.20133,0.770505,0.145241,-0.352443,0.0102201,-1.04433,-0.68653,0.228415,0.310112,-0.463315,-0.545731,0.561472,0.565111,0.293379,0.922001,-0.786282,0.0793942,0.367231,0.151377,0.742074,-0.507645,-0.0582965,-0.0531504,0.323775,-0.701354,-0.667613,-0.843384,-0.00874274,1.03535,0.490863,-0.575306,-0.232481,-0.468769,-0.0147829,-0.812056,-0.155868,0.102825,0.80315,0.573423,-0.327164,0.543573,0.625925,-0.0761495,0.0112914,0.621515,-0.163461,0.197064,0.0167328,-0.21924,-0.621871,-0.668966,0.791182,0.70062,0.603781,-0.524034,0.63973,-0.0203975,0.13497,0.212929,0.452229,-0.00521248,-0.127809,-0.0921591,0.176472,0.309781,-0.330219,-0.237522,-0.486124,-0.942733,0.317731,-0.162299,0.449237,0.110906,0.585088,1.13555,-0.14078,0.329963,-0.668955,-0.126127,0.0811155,0.869467,0.111183,0.888552,-0.927484,0.240917,0.0402309,-0.717596,0.154715,0.161507,0.0789068,-0.701916,0.464887,-0.31354,0.179798,0.239453,-0.0926164,0.741841,-0.566902,-0.718481,-0.510857,-0.754643,-0.298443,-0.680712,-0.291398,-0.223089,-0.379075,-0.555401,-0.141643,-0.603195,0.585927,-0.135758,-0.832787,0.43121,-0.407034,-0.130957,-0.511628,-0.315267,-0.293812,0.70422,0.0134396,-0.102607,0.200936,-0.0940729,-0.237313,0.131091,-0.0359486,0.978967,-1.02344,0.102728,0.16703,0.346717,0.00962447,-0.568293,-0.627745,0.781673,-0.0761435,-0.410905,-0.0201537,-0.624508,0.680313,-0.000590397,1.07913,0.131126,-0.44154,-0.722245,0.59759,0.16153,0.292261,-0.496348,0.243606,-0.0563737,-0.0237039,-0.094423,-1.43069,0.231372,0.542892,-0.71297,0.718641,-0.190371,0.61059,-0.0763427,0.598357,-0.223773,0.852061,1.2952,-0.794369,-0.720831,0.696415,-1.51236,0.775685,-0.11396,0.0287614,0.117408,0.281573,-0.702661,0.277864,-0.545211,-0.0491745,-0.795899,1.07406,0.518853,0.0328111,0.0570452,-1.09127,-0.306368,-0.199762,0.469923,-0.092581,0.464637,-1.34809,-0.756562,0.23441,0.0224148,-0.711043,0.4346,-0.47004,0.307844,-0.587602,-0.506278,0.165292,-0.23578,0.42628,0.610381,-0.512977,-0.435822,-0.515499,-0.715891,-0.316553,-0.254478,-0.681869,0.0483195,-0.984093,-0.818292,0.805323,-0.590469,0.0880941,0.745046,0.701764,0.629658,0.19677,0.0851453,-0.291086,-0.613659,-0.343393,0.414281,-0.563674,-0.258608,0.246671,-0.854672,0.500035,-0.843087,0.266458,0.317476,0.631679,0.766653,-0.632994,-0.511281,0.534606,-0.805095,-0.208653,-0.615694,0.141977,-0.203193,0.908392,-0.0852041,0.391991,0.0131905,-0.48874,-0.696726,-0.554656,-0.182829,0.547108,0.0693748,0.333238,-0.966908,0.445729,-0.902133,-0.964977,0.610775,0.838597,0.60196,0.717159,0.278537,0.594183,0.807941,0.119095,-0.112711,0.108127,0.613583,-0.422413,0.888883,-0.106569,0.455734,-0.00890014,0.740226,0.828448,-0.530563,-0.0629699,-0.436935,0.816847,0.309385,-0.0401282,0.339105,0.711767,0.451106,-0.36325,-0.842809,-0.32625,-0.259626,0.659979,-0.104505,0.208976,0.428019,-0.245578,0.107053,0.044936,-0.618841,-0.874656,0.562113,-0.343408,0.0723945,0.336188,0.737296,0.446567,0.44129,0.57307,-0.206135,0.278801,0.72016,-0.350596,0.187133,-0.737153,-0.136404,0.354303,0.388794,0.2307,-0.293679,-0.0507649,-0.819111,-0.558511,0.197199,0.478739,0.860238,0.12865,0.0495768,-0.581359,0.613529,0.545815,-0.136045,-0.545528,0.376124,-0.662301,0.410829,-1.51182,0.647629,0.0446072,0.317388,0.707986,0.45945,-0.0323047,-0.795349,-0.282442,0.581481,-0.52975,0.230342,-0.50878,-0.690575,-0.245697,-0.42201,-0.635815,-0.0665505,-0.0169139,0.246653,-0.822726,0.5416,-0.323166,0.691933,0.643449,1.12649,0.823459,-0.848875,0.0308374,0.245867,-0.0719744,-0.354295,0.284771,-0.695999,0.0598562,0.336682,0.149237,0.130721,-0.278241,0.368893,-0.0678893,-0.114425,0.622846,-0.477028,-0.458928,-0.219643,0.12681,0.68757,0.323097,-0.420476,0.984304,-0.878004,-0.477071,-0.445335,-0.362888,1.2046,-0.111844,-1.43626,-0.819185,-0.172985,-0.601947,0.221942,0.841042,-0.342259,-0.312506,0.214441,-0.66175,-0.734958,-0.786839,-0.326201,1.23537,0.581553,-0.776487,-0.177549,0.478351,-0.545775,-0.750223,0.998115,0.45186,-0.178069,0.331983,-0.929888,-0.387155,-0.437911,-0.907323,0.991316,0.628448,-0.582602,0.49105,0.122824,-0.708604,-0.0409681,1.01912,0.741762,-0.281881,0.228898,-1.12041,0.82225,-0.454503,-0.43593,-0.0352049,0.280232,-1.31806,0.426472,0.483321,-0.0624204,-0.491703,0.00403299,0.303278,0.543969,-0.949808,-0.50922,0.201893,0.0591919,-0.180266,0.621301,0.308236,-1.18033,-0.0801472,0.893434,0.4228,0.0910754,0.459557,-0.159488,-0.152931,0.625769,-0.183363,-0.187626,-0.154586,0.0729471,0.25324,0.519866,-0.422064,0.615489,1.00703,0.273733,0.789632,0.0198595,-0.252536,0.103294,-0.541387,-0.79259,-0.471261,-0.665794,-0.719126,0.101621,-0.207667,-0.803939,0.698161,-0.0400319,-0.428875,0.0554738,0.177952,0.149694,-0.554486,0.865298,-0.850348,-0.139783,-0.286665,0.167584,0.879402,0.526456,-0.00330403,-0.308393,0.0677602,-0.455061,0.349546,-0.254487,-0.866719,0.0103586,-0.352223,-0.952353,0.304732,0.0421431,-0.874117,0.177889,-0.338295,0.769491,0.506322,-0.306016,-1.01509,-0.163894,0.50024,-0.218262,-0.819286,0.0677091,-0.655522,0.15718,-0.673316,0.507091,1.10183,0.876944,-0.501227,0.585473,0.722283,-1.17732,0.0623292,-0.545877,-0.0744524,-0.0601013,-0.358286,-0.528353,-0.233632,-0.628317,-1.06563,0.031553,0.303684,0.746132,-0.779424,-0.505841,-0.118595,-0.286017,0.0368424,1.1428,-0.0219335,-0.785166,-0.27034,0.572999,-0.101178,0.317152,-0.0685804,-0.361278,-0.147658,-0.5286,0.926281,-1.21769,0.95605,-0.272191,-0.517239,-0.326536,0.418554,0.0382574,-0.99943,-0.625369,-0.544014,-0.0656085,0.152961,0.770715,0.207114,-0.84357,-1.33445,-0.416924,0.171051,0.887871,0.249256,0.990354,-0.839423,0.51058,-0.101672,0.361389,-0.300855,0.233593,0.168741,-0.142277,0.234999,-1.21526,0.217561,0.263792,0.200449,0.568265,-0.476452,-0.746697,0.281786,0.172569,0.725903,0.0460178,0.366026,1.16029,-0.390619,-1.02798,-0.959832,-0.23627,-0.689607,0.240574,0.650545,-0.66986,-0.931962,-0.797549,-0.371276,0.274048,0.452947,0.166738,0.101973,-0.843103,0.737331,-0.906041,0.726947,-1.05057,-0.331336,0.589156,0.0468438,-1.07157,-0.735224,-0.397954,-0.382777,-0.152113,0.123083,0.762946,0.402733,0.181722,0.113312,0.201558,-0.724419,0.509896,-0.32384,0.0438877,0.395642,0.304897,-0.5691,-0.150431,-0.0540159,0.279728,-0.984769,0.423828,0.11918,0.187937,-0.687913,-0.78924,-0.746927,-0.544313,0.784947,-0.951296,0.610484,0.614653,-0.760148,0.704353,0.0147831,0.582786,-0.513461,-0.779265,-0.776689,-0.580873,0.511547,-0.264484,-0.327606,0.693005,0.283211,0.427807,-0.562625,-0.135575,0.139603,-0.669056,-0.820319,0.169243,-0.0581213,0.126166,0.273678,-0.818283,-0.830943,-0.747767,-0.969855,-0.246601,0.0714826,-0.721084,-0.624394,-0.417565,-0.758504,-0.577045,-0.588442,0.937238,0.0433748,-0.375581,-0.160551,-0.20031,-0.35188,0.082112,-0.348249,0.057218,-0.322095,0.277433,0.785287,-0.240482,-0.3549,0.804858,0.78217,-0.275065,-0.850357,0.429568,0.3244,-0.137276,0.658938,0.862763,0.577024,-0.917684,0.560588,-0.362682,-0.730141,-0.330117,-0.261716,0.292825,-0.499684,-0.406408,-0.503429,-0.767637,0.0967045,-0.92809,-0.406914,-0.601862,0.0233084,0.297037,-0.136791,0.829476,0.955468,-0.760305,0.443493,-1.07973,-0.182257,0.283788,0.911772,0.0597147,-0.503979,-0.816223,-0.0842341,-0.619187,0.886532,0.30955,-0.744554,0.47743,-1.05232,0.159823,0.0946037,-0.123902,0.355671,-0.0919089,0.0742387,0.061982,-0.0411961,0.880326,-0.646359,-0.360231,-0.149476,0.415623,0.901694,-0.471714,-0.165903,-0.0265391,-0.389104,0.711151,-0.441498,0.0960157,-0.703015,-0.227619,0.316462,-0.369298,1.0073,0.492574,0.188865,-0.0735694,-0.743437,-0.0457341,-0.862921,0.126109,0.294162,0.348552,0.597339,0.187218,-0.650822,-0.938452,-0.239701,0.510889,0.223455,0.842016,-0.345711,-0.456831,0.0496428,-0.929772,-0.603562,0.738952,0.614967,0.856455,0.756279,0.329639,0.398151,-0.416697,0.407557,0.0882421,0.141763,-0.657335,-0.260943,-0.471037,-0.14531,0.373902,0.215198,0.881602,-0.108903,0.786648,-0.516223,-0.0970975,0.374057,-0.207996,-0.14495,0.816215,-0.407014,0.362446,0.0923481,0.387198,0.0749958,-0.340775,-0.653774,0.355206,-0.715216,-0.13556,-0.632507,0.783074,0.42836,0.473702,0.35024,-0.651888,0.197239,0.491127,-0.467454,-0.554947,0.274402,0.776394,0.395505,-0.534776,-0.235615,-0.72736,-0.548237,-0.0997077,0.860547,-0.367181,0.000979607,-0.162583,0.490964,-0.578744,0.504376,-0.185176,0.0402278,-0.165288,-0.0587585,-0.534409,0.568818,0.566458,-0.302036,0.526847,0.356375,-0.958608,-0.115906,-0.0773165,-0.276694,-1.04397,0.129897,0.862601,-0.630772,-0.199166,-0.635,0.223482,-0.474361,-0.86962,0.871369,0.509469,-0.0861116,-0.160807,-0.10843,0.16246,-0.0299267,0.474725,0.854989,0.215109,0.0273517,0.33061,0.626287,-0.105299,-0.219548,0.470951,0.216349,0.0545106,0.727276,0.98036,-0.591395,-0.475745,-0.313464,0.0663034,-0.426757,0.24804,-0.549031,0.669147,0.450629,0.260289,0.627494,-0.489936,-0.200454,-0.627817,0.479419,0.395554,-0.539836,0.251301,0.976534,-0.512725,0.883204,0.211041,-0.366234,-0.0705996,-0.282628,1.31608,0.807051,-0.652188,-0.815442,-0.0284194,-0.0532596,-0.307838,0.469822,-0.149245,0.541283,-0.453827,-1.12571,0.596275,-0.747027,0.144791,0.604113,-0.624416,0.341841,-0.390942,-0.120519,-0.275297,0.3868,0.113086,0.23855,-0.22147,0.781449,-0.181629,-0.00408302,0.420829,-0.00265719,0.455418,0.0901971,0.209619,-0.18674,-0.593343,-0.671625,-0.167581,0.381548,0.603014,0.659058,0.715305,-1.06409,0.24924,-0.762056,0.122684,0.454267,0.674738,0.118507,-0.102483,0.442853,-0.495148,-0.621644,0.576805,1.06684,-0.564283,-0.308905,0.224521,0.490514,-0.640192,0.488949,1.05199,1.04846,0.703585,-0.704945,-0.571785,0.494266,0.315879,-0.566584,-0.254465,0.906035,-0.880557,-0.289201,-1.15691,0.156833,-0.492358,-0.523415,0.634882,0.869449,-0.635648,-0.14502,0.0824742,-1.13372,0.0300998,-0.628075,0.112656,0.222793,0.0288664,0.0851935,0.486673,0.446839,0.961682,0.258224,0.400813,-0.481597,-0.136251,0.301536,-0.908984,-0.324811,0.18305,-0.447596,-0.436467,0.0900796,-0.379994,-0.445038,0.323476,-0.824109,-0.431302,-0.177251,-0.0484714,-0.930086,-0.435278,-0.176811,-0.597701,-0.190745,0.660116,0.0716956,0.0911448,-0.787732,0.354984,-0.68981,-0.625131,0.511724,-0.876495,0.618931,-0.341165,-0.609919,0.208686,0.720649,0.626354,0.444054,0.19681,-0.701408,0.515236,-0.739302,-0.700495,-0.747934,0.281427,0.336198,0.8836,0.145018,0.31426,0.679959,-0.182492,-0.998989,-0.238956,-0.236993,0.880298,-0.181947,-0.842105,0.511642,0.383598,0.317263,-0.270136,0.754192,-0.242526,-0.916956,-0.0745443,-0.419611,0.626099,0.277377,-0.302634,-0.932301,0.60484,0.629675,0.522851,0.647031,0.405854,-0.000570008,-0.0662166,-0.763458,-0.918064,-0.0719664,-0.711249,-0.370203,-0.0287635,-0.295524,0.309174,-0.687563,-0.660404,0.248424,0.651848,0.446062,-0.427391,-0.00308317,0.842429,-0.660106,-0.656967,-0.564447,-0.651711,0.43711,0.874101,0.239335,-0.223052,-0.17287,0.884534,0.360147,0.661405,0.819453,0.178876,-0.17247,0.540565,0.845881,0.406455,0.129103,0.64625,-0.297952,0.642097,-0.426262,-0.843384,0.60483,0.129875,0.657914,0.176495,-0.402951,0.918894,-0.46654,0.352998,0.0954492,-0.666562,0.249561,-0.0647708,0.0722322,0.227442,0.432861,0.834689,-0.0514571,-0.469485,-0.640553,0.47212,-0.292283,-0.626436,0.497262,-0.262106,0.460487,0.0438938,-0.461154,-0.623327,0.437494,-0.660369,0.550564,0.760886,0.737348,-0.362168,-0.0504034,0.535409,-0.00711186,0.198318,0.773241,0.841114,-0.0445328,-0.672048,-0.0412354,0.51694,0.255665,-0.745309,-0.359314,0.865194,0.569402,0.316125,-0.360032,-0.992215,0.676499,0.141656,-0.224814,0.526759,0.627054,-0.0929387,-0.363716,-0.70327,-0.268571,1.04308,-0.351547,0.136475,-0.621424,0.130636,0.0644708,0.362972,-0.997045,0.0685484,0.0585095,-0.787411,-0.823984,0.219724,0.52302,-0.441451,0.911545,-0.296337,-0.25767,-0.908132,-0.348255,-0.619422,0.480868,-0.00528551,-0.603897,-0.431471,0.0385659,0.515037,0.586039,-0.188241,-0.259901,0.167475,0.0192534,-0.0889642,-0.355333,0.774829,-0.497681,-0.218478,0.308051,-0.338816,0.855007,0.0705742,-0.0326421,0.0244378,0.163957,0.740451,0.829985,0.138968,0.244729,-1.31097,0.116356,-1.23308,-0.683628,0.0987493,-0.370002,-0.394186,0.414375,-0.139751,-0.528504,-0.545712,-0.0458551,0.24837,0.147967,0.261315,0.123373,0.644798,-0.196064,-0.676782,-0.0668144,0.113609,-0.361185,0.668162,0.569568,0.301563,-0.185788,0.0222791,-0.133843,0.0627458,0.238502,-1.11534,-0.080929,-0.646133,0.188095,0.774391,0.0404291,0.13767,0.260289,0.691837,-0.343148,0.105968,-0.310444,0.354668,-0.00416718,0.0546694,0.372431,0.229411,-0.60904,-0.577752,-0.659142,0.518704,-0.79542,-0.468853,0.188674,-0.86738,-0.152161,0.137038,0.999966,-0.192697,-0.633647,-0.850663,0.150112,0.0738557,0.21134,-0.256543,-0.668116,0.375588,0.696629,-0.193102,0.667115,-0.0907337,0.064667,0.0634758,0.151272,-0.441571,-0.678816,-0.222787,-0.582015,-0.583221,0.808321,-0.178709,0.212106,-0.48164,-0.397807,-0.703458,-0.540208,-0.782254,0.392728,-0.351255,-0.101239,0.387759,0.362064,-0.321489,0.68392,-0.56703,-0.579506,-0.404591,-0.591495,0.496346,0.570882,-0.00685423,0.240054,0.174178,0.265608,0.836954,0.150613,0.102234,0.444374,-0.18619,0.285528,0.278003,-0.0326011,0.371732,-0.356675,-0.110889,-0.612138,0.45469,0.658914,0.581088,0.852162,-0.0680012,0.281345,-0.503534,-0.499018,0.611024,0.571734,-1.05091,0.000415057,0.102239,0.260452,-0.87904,-0.021326,1.09622,-0.446322,0.399254,0.0130361,-0.332474,-0.133913,-0.0372596,-0.833321,0.267837,0.400079,0.0748041,0.353076,-0.275514,-0.690646,-0.349913,0.650326,0.971081,0.928879,0.126656,-0.305222,-1.28336,-0.175739,0.947649,0.163758,0.518737,0.931666,-0.125565,-0.762925,-0.380641,-0.771719,0.645924,0.0334507,0.185546,0.00504763,-0.823347,-0.0986696,-0.712364,-0.702762,0.155595,0.284215,-0.0765661,-0.478222,-0.282553,0.320338,-0.941111,-0.635733,0.0648802,1.00272,-0.68771,0.176506,0.0364474,0.298949,0.702386,-0.217541,0.017259,0.997724,-0.615143,-0.33027,-0.633682,0.718815,0.430808,1.12097,0.0842129,0.372595,-1.03886,-0.211932,-0.0605252,0.899286,0.426859,0.662175,-0.852168,-0.0903489,0.0275241,0.81858,0.235308,-0.484378,0.794796,-0.213158,-0.186155,-0.655155,0.0544325,-0.598043,0.209885,-0.968004,-0.718156,-0.751915,-0.749986,-0.510599,-0.211668,0.640746,0.705007,0.233685,0.273676,-0.709991,-0.8124,0.199567,0.547882,-0.226613,-0.628401,-0.229842,0.334988,-0.960233,-0.30075,0.0213956,0.611148,-0.0837661,0.631178,0.319347,0.99919,-0.296874,-0.200826,0.776034,0.881946,0.842146,-0.469743,0.469862,-0.945281,0.0563506,-0.957283,0.203206,0.514697,-0.0802016,-0.235358,-0.195538,-0.801775,-0.183348,-0.590516,-0.37057,0.845659,-0.583504,0.703427,-0.821429,-0.789546,-0.122239,-0.275706,0.885153,-0.00545291,0.404008,0.387083,0.0233147,-0.868393,-0.879803,0.801576,0.678051,-0.638178,0.0571271,0.766199,0.073646,0.605135,0.88839,0.732958,0.381106,0.168603,0.135559,-0.27798,-0.283158,0.36981,-0.658128,0.797424,0.634981,0.577387,0.71374,0.739114,-0.120243,0.141468,-0.871674,-0.677866,0.671384,-0.20701,-0.200689,0.370165,-0.513894,0.5718,0.026214,-0.833583,-0.598601,0.571941,0.450577,-0.678378,0.0830448,0.578829,-0.034302,0.370448,-0.455002,-0.598251,0.80382,-0.489426,0.768771,-0.178345,-0.750306,0.897593,-0.41236,-0.805333,-1.02624,0.912388,0.174498,0.430047,0.735462,-0.542237,0.33192,-0.428208,-0.278184,-0.507148,-0.483987,0.140347,-0.0894909,-0.260219,-0.799729,0.533218,0.943063,-0.0358796,-0.716225,-0.623025,-0.0976488,0.939376,0.742727,0.197096,0.10359,0.849999,-0.76193,0.191012,0.171741,-0.853067,0.409355,-0.162971,0.105789,0.316541,-0.245519,-1.18524,0.176944,0.645973,0.452014,-0.0783565,-0.322985,-0.181261,-0.0212143,-1.00254,0.810971,-0.912982,-0.419887,-0.138924,0.706082,-0.891234,0.4045,0.926853,0.0621324,-0.121956,0.70252,0.592404,-0.921776,-0.342981,-0.0487089,-0.422416,-0.793207,0.00346527,-0.373277,0.235618,0.938253,-0.86638,-0.0668037,0.436634,-0.323894,-0.434695,-1.1165,0.438673,0.731772,-0.32269,0.719102,-0.224858,0.400327,0.150191,0.778975,0.572699,-0.972768,0.246696,-0.324748,-0.170307,-0.20904,0.24618,-0.118774,-0.397599,0.320695,0.263611,-0.326566,-0.416994,-0.0445848,-0.163393,0.06148,-0.653766,0.870895,0.642492,-0.395662,0.649059,-0.087855,-0.556131,-0.404415,0.421546,-0.813626,0.392069,-0.481375,-0.00440587,0.677432,0.179194,-0.946319,-0.452328,-0.820669,0.81259,0.241756,-0.193557,0.451563,0.40978,0.358805,0.679096,-0.211145,-0.552344,0.210419,0.0542983,0.438566,-0.180282,-0.324456,-0.501828,0.329927,-0.528425,-0.170794,0.0663603,0.760067,0.150132,0.64786,0.32587,0.263603,0.600231,0.388064,-0.0567643,-1.17182,0.274398,-0.690097,-0.172295,0.566353,-0.931998,-0.97389,-0.908357,0.316271,-0.0499723,-0.875733,-0.454057,0.794136,0.598845,-0.339017,-0.892532,0.418698,-0.629245,-0.312275,-0.0187078,0.332069,-0.00154118,-0.114144,0.352556,0.210814,0.686965,-0.0827095,0.475697,0.167848,0.379239,-0.929678,0.0632973,0.117457,-0.655685,-0.6796,-0.311231,-0.769584,0.287399,0.218468,1.40749,-0.866034,0.158944,0.370351,0.559005,0.729529,-1.03092,0.428072,-0.0912728,0.236256,0.15428,0.167217,-0.0580405,-0.366507,0.545625,0.343531,0.484385,-0.398295,1.06366,0.155311,-0.400459,-0.547062,0.275464,0.224536,0.296248,-0.402311,-1.16596,0.205253,0.395661,-0.344256,0.165572,0.530661,-0.690094,1.14228,-0.277626,1.00969,-0.339475,-0.524647,0.717465,0.0790899,-0.145776,-0.173632,0.112167,-0.903745,0.935745,0.0608225,0.647433,0.281293,1.14192,-0.40907,0.394742,-0.083598,0.298779,-0.327048,0.605744,0.15422,0.425825,0.338666,0.0319145,-0.901984,0.70039,0.219417,-0.163162,1.05241,0.410669,0.828711,0.838541,-0.670237,0.671267,-0.467678,-0.138825,0.98251,-0.126424,0.623667,0.0772592,-0.551831,0.133397,0.341604,0.387112,0.995973,0.806471,-0.720174,-0.488063,0.210723,0.678046,-0.258279,-0.583469,-0.369932,0.00334202,0.697041,-0.735746,-0.668912,0.489944,1.2002,-0.006152,0.844872,-0.3555,-0.701738,0.759029,-0.614621,-0.274173,-0.503911,-0.203937,0.690143,-0.76092,0.581181,0.0867749,0.358418,0.280922,-0.0609139,-0.624609,0.141908,-0.0780455,-1.0116,-0.799743,-0.768119,-0.20909,-0.507656,0.826465,-0.445259,0.166087,0.762579,-0.741484,0.0647696,-0.511031,0.370286,-0.868173,0.153818,0.532346,0.8893,-0.257367,-0.00481059,-0.846123,0.204854,0.699079,-0.630597,0.0457241,0.0837713,-0.23309,-0.772148,-0.65787,0.477057,-0.980671,0.374236,-0.165599,-0.282153,0.318552,0.22594,0.236509,0.661323,-0.458315,0.206349,0.0236592,0.514575,-0.549641,-0.807673,-0.487808,0.722743,0.612718,-0.22329,0.362139,-0.0301918,-0.672142,0.301054,-0.124661,0.657965,0.394617,0.297163,-0.0846164,0.292229,-0.873405,-0.893856,-0.91715,-0.866407,0.310815,0.642987,-0.0913413,-0.189329,-0.129998,0.794307,0.938746,-0.58989,0.133542,-0.149971,0.295825,0.661918,-0.109375,-0.564319,0.548423,-0.279603,0.407888,-0.886207,-0.986676,-0.252349,0.0569512,-0.380237,0.997449,0.640263,0.125082,-0.0166164,0.306707,-0.732783,0.584864,-0.487886,0.445293,-0.35723,-0.739568,0.197814,-0.96483,-0.929481,0.578248,0.598073,-0.727727,-0.480853,-0.253786,-0.464778,0.570665,-0.204036,0.562159,-0.525498,0.490381,0.194837,0.139796,0.275168,0.368701,0.779762,-0.480375,0.240861,0.439443,0.608163,0.822134,0.0446055,-0.26847,0.528421,-0.60276,0.92821,-0.204695,-0.113513,-0.932068,-0.273737,-0.899715,0.48238,-0.697652,-0.081626,-0.842328,-0.334382,0.56851,0.327596,0.213967,-0.225954,-0.0142367,-0.754309,-1.00074,0.124381,-0.337331,0.401487,-0.930416,-0.846739,0.8723,-0.632893,-0.268453,0.828069,1.09841,0.953915,-0.769345,-0.372508,0.169473,-0.265297,-0.790879,-0.897873,-0.394523,-0.669204,0.782835,0.268089,-0.477439,0.698467,0.549327,-0.447136,0.853277,-0.20256,-0.377552,-0.298687,-0.501781,-0.136551,-0.179039,1.08972,-0.780734,-0.695649,-0.221475,-0.96222,-0.884832,-0.156537,0.014713,-0.296994,0.753773,1.35507,0.636523,-0.586953,-0.513092,0.601373,-0.138263,-0.879351,-0.846783,-0.991981,-0.295572,-0.229284,0.198942,0.182162,-0.509616,-0.256917,0.00458641,-0.213211,0.525728,-0.110057,0.610669,-0.113843,0.611624,0.497335,0.156066,-0.0496359,-1.00049,0.600858,0.511855,0.108234,-0.430185,0.507156,0.850418,0.106917,-0.227745,-0.280758,0.448483,-0.647312,-0.0688598,-0.549757,0.251673,0.861999,-0.722672,-0.199377,-0.544174,0.389077,0.163959,-0.306369,-0.756975,0.610552,0.44587,0.800406,-0.408149,0.357848,-0.204978,0.122719,-0.850927,-0.348199,0.448416,0.103952,0.182526,0.269068,-0.197887,-0.298826,0.834622,-0.0761551,0.236496,-0.892098,-0.726018,0.278131,0.703022,0.110004,-0.491552,0.862245,-1.12428,-0.166295,0.319912,0.541402,-0.95276,-0.597218,0.499332,0.211398,0.377622,0.350381,0.426219,0.172205,-0.435468,-0.419328,-0.05006,0.103906,-0.51632,-0.0489704,0.111523,0.339896,-0.126326,0.259109,0.76482,-1.10507,-0.474725,-0.791288,0.0516615,0.267731,0.227825,-0.114235,-1.50755,0.668236,0.000835627,-0.294841,0.198221,0.169155,0.240192,-0.205903,-0.0239145,0.427799,0.833211,-0.400452,-1.12162,-0.0997979,-0.330596,-0.686348,-0.0410614,0.00660432,0.423218,-0.872573,-0.609928,0.566439,-0.52465,-1.03811,-0.499449,0.0254141,0.540562,-0.490206,0.324399,-0.020053,-0.831895,-0.464269,0.232026,-0.269245,0.16528,0.297588,-0.37084,0.0565136,-0.0239854,-0.194344,0.78121,-0.369006,0.47205,-0.559193,-0.861349,-0.430792,0.215821,-0.290705,0.439992,-0.679975,-0.740989,0.455733,-0.756813,-0.561835,0.17995,-0.885664,0.892457,0.447204,0.396977,0.460977,0.340612,0.109689,-0.881718,0.724846,0.239144,-0.645162,0.225763,0.165607,-0.696986,0.533051,0.00487358,0.0504151,1.352,-0.294888,-0.60683,-1.01714,-0.525608,0.458309,0.155191,-0.314542,0.657551,-0.0805224,0.501831,0.884103,-0.222923,0.446585,-0.290634,1.00591,-0.283732,-0.931119,0.658178,0.170743,0.0957649,-0.0288597,-0.559892,-0.362467,0.184091,0.80266,0.615642,0.860457,-0.531312,0.269713,-0.278118,-0.348214,0.0889227,-0.575753,-0.369924,0.432388,0.782745,0.124804,0.190107,0.756599,-0.61069,0.887147,0.263827,0.900363,0.481039,1.21397,-0.395886,-0.0158725,-0.248889,0.900209,-0.205841,0.413487,0.419407,0.768069,0.311587,-0.317764,0.397216,-0.863511,-0.74173,0.401219,0.830704,0.487169,0.709869,-0.512744,-0.423417,0.885975,0.0740382,0.327509,0.364549,0.605667,0.337694,-0.297392,-0.350635,-0.667026,-0.850587,0.0711552,0.0257612,-0.776344,0.203578,-0.0279899,0.670115,-0.466869,0.202891,0.0505701,-0.476716,0.428784,-0.875937,0.0413025,-0.597712,-0.339496,0.567118,-0.753745,0.0449108,-0.299362,-0.114036,-0.41227,0.256133,-0.91451,0.444661,0.319893,-0.504409,-0.379211,-0.102155,0.525441,0.892145,0.539171,0.00547905,-0.708603,0.122722,-0.00412589,-0.331652,-0.433857,-0.644249,0.904433,0.0858219,0.910312,-0.840343,-0.21513,0.63875,0.325177,-0.589756,0.0954774,-0.888098,0.233434,-0.150236,0.20226,-0.146613,-0.575392,-0.738976,0.0382343,0.405377,0.228238,0.664051,0.0158426,-0.371426,-0.385248,0.483366,-0.220918,0.402456,0.51009,0.890072,-0.0164408,0.545896,-0.657926,0.838791,0.603256,-0.382561,-0.337079,0.142254,-0.225634,-0.577508,0.822117,0.373954,-0.873674,-0.799765,0.222306,-0.234919,-0.958453,0.0725676,-0.608041,0.86803,0.753063,0.296542,-0.175426,-0.590678,-0.0469762,-0.44195,0.797397,0.383024,-0.923054,0.65614,-0.783433,0.303737,0.414419,0.283663,-0.112897,0.164577,-0.549383,-0.13324,0.161701,0.275079,0.376387,0.879901,-0.126115,